{"learner":{"attributes":{"scikit_learn":"{\"_estimator_type\": \"classifier\"}"},"feature_names":["Warehouse_block","Mode_of_Shipment","Product_importance","Weight_in_gms","Cost_of_the_Product"],"feature_types":["int","int","int","int","int"],"gradient_booster":{"model":{"cats":{"enc":[],"feature_segments":[],"sorted_idx":[]},"gbtree_model_param":{"num_parallel_tree":"1","num_trees":"100"},"iteration_indptr":[0,1,2,3,4,5,6,7,8,9,10,11,12,13,14,15,16,17,18,19,20,21,22,23,24,25,26,27,28,29,30,31,32,33,34,35,36,37,38,39,40,41,42,43,44,45,46,47,48,49,50,51,52,53,54,55,56,57,58,59,60,61,62,63,64,65,66,67,68,69,70,71,72,73,74,75,76,77,78,79,80,81,82,83,84,85,86,87,88,89,90,91,92,93,94,95,96,97,98,99,100],"tree_info":[0,0,0,0,0,0,0,0,0,0,0,0,0,0,0,0,0,0,0,0,0,0,0,0,0,0,0,0,0,0,0,0,0,0,0,0,0,0,0,0,0,0,0,0,0,0,0,0,0,0,0,0,0,0,0,0,0,0,0,0,0,0,0,0,0,0,0,0,0,0,0,0,0,0,0,0,0,0,0,0,0,0,0,0,0,0,0,0,0,0,0,0,0,0,0,0,0,0,0,0],"trees":[{"base_weights":[1.8906553E-8,7.9413384E-1,-6.7920816E-1,1.53732E0,2.4295428E-1,-7.885657E-2,-6.925846E-1,1.5478594E0,5.275677E-1,-5.8781385E-1,1.6301103E0,7.119784E-1,-2.4826449E-1,-7.665368E-1,-5.921384E-1,1.4840226E0,1.663828E-1,-2.8374195E-1,1.1840097E-1,-7.559368E-1,-5.0466645E-1,4.7797072E-1,1.6533319E0,-2.3730192E-2,1.1840097E-1,-1.064441E-1,-1.0673833E-1,-7.786713E-1,4.3947327E-1,-5.6765836E-1,-8.779849E-1,1.5318635E-1,4.8447274E-2,7.582525E-4,-4.4628512E-2,1.7187301E-2,-7.692963E-2,-8.222673E-2,-4.462723E-2,-4.4628512E-2,8.34656E-2,1.6677599E-1,4.732896E-2,-1.9151723E-2,5.8104794E-2,-7.953205E-2,-4.2135354E-2,6.995917E-2,-4.4628512E-2,-5.9909713E-2,-1.9681713E-2,-1.3380462E-1,-6.938679E-2],"categories":[],"categories_nodes":[],"categories_segments":[],"categories_sizes":[],"default_left":[0,0,0,0,0,0,0,0,0,0,0,0,0,0,0,0,0,0,0,0,0,0,0,0,0,0,0,0,0,0,0,0,0,0,0,0,0,0,0,0,0,0,0,0,0,0,0,0,0,0,0,0,0],"id":0,"left_children":[1,3,5,7,9,11,13,15,17,19,21,23,25,27,29,31,-1,33,-1,35,37,39,41,-1,-1,-1,43,45,47,49,51,-1,-1,-1,-1,-1,-1,-1,-1,-1,-1,-1,-1,-1,-1,-1,-1,-1,-1,-1,-1,-1,-1],"loss_changes":[1.143243E3,3.9987726E2,9.119873E0,3.609375E0,6.488545E2,3.6638718E0,7.8464355E0,5.741577E-1,3.4319031E0,4.5441284E0,4.851013E0,2.4544344E0,2.4481506E0,9.710907E0,2.847992E0,1.2378784E1,0E0,1.646947E-1,0E0,1.5525818E0,4.061264E0,2.2095666E0,2.7227783E0,0E0,0E0,0E0,1.2781703E0,3.437561E0,1.9288168E0,5.0507507E0,2.1120872E0,0E0,0E0,0E0,0E0,0E0,0E0,0E0,0E0,0E0,0E0,0E0,0E0,0E0,0E0,0E0,0E0,0E0,0E0,0E0,0E0,0E0,0E0],"parents":[2147483647,0,0,1,1,2,2,3,3,4,4,5,5,6,6,7,7,8,8,9,9,10,10,11,11,12,12,13,13,14,14,15,15,17,17,19,19,20,20,21,21,22,22,26,26,27,27,28,28,29,29,30,30],"right_children":[2,4,6,8,10,12,14,16,18,20,22,24,26,28,30,32,-1,34,-1,36,38,40,42,-1,-1,-1,44,46,48,50,52,-1,-1,-1,-1,-1,-1,-1,-1,-1,-1,-1,-1,-1,-1,-1,-1,-1,-1,-1,-1,-1,-1],"split_conditions":[4.006E3,2.17E2,4.044E3,3.977E3,1.995E3,1E0,2.15E2,2.029E3,2E0,2E0,2.029E3,2E0,1.5E2,5.984E3,5.854E3,1.81E2,1.663828E-1,2E0,1.1840097E-1,2.19E2,2.37E2,2.34E2,3.977E3,-2.3730192E-2,1.1840097E-1,-1.064441E-1,2.68E2,5.894E3,1.86E2,5.691E3,2.3E2,1.5318635E-1,4.8447274E-2,7.582525E-4,-4.4628512E-2,1.7187301E-2,-7.692963E-2,-8.222673E-2,-4.462723E-2,-4.4628512E-2,8.34656E-2,1.6677599E-1,4.732896E-2,-1.9151723E-2,5.8104794E-2,-7.953205E-2,-4.2135354E-2,6.995917E-2,-4.4628512E-2,-5.9909713E-2,-1.9681713E-2,-1.3380462E-1,-6.938679E-2],"split_indices":[3,4,3,3,3,1,4,3,0,1,3,0,4,3,3,4,0,2,0,4,4,4,3,0,0,0,4,3,4,3,4,0,0,0,0,0,0,0,0,0,0,0,0,0,0,0,0,0,0,0,0,0,0],"split_type":[0,0,0,0,0,0,0,0,0,0,0,0,0,0,0,0,0,0,0,0,0,0,0,0,0,0,0,0,0,0,0,0,0,0,0,0,0,0,0,0,0,0,0,0,0,0,0,0,0,0,0,0,0],"sum_hessian":[2.1175417E3,9.7610516E2,1.1414365E3,4.1489282E2,5.6121234E2,2.5028337E1,1.1164082E3,4.1007968E2,4.813142E0,3.5135934E2,2.0985298E2,3.8505135E0,2.1177824E1,6.3918524E2,4.7722302E2,2.7338644E2,1.3669322E2,2.406571E0,2.406571E0,1.1359015E2,2.3776921E2,4.572485E0,2.052805E2,1.4439425E0,2.406571E0,2.1659138E0,1.901191E1,6.331688E2,6.016427E0,4.4232773E2,3.489528E1,2.6039096E2,1.2995483E1,1.2032855E0,1.2032855E0,1.4439425E0,1.121462E2,3.489528E1,2.0287393E2,1.2032855E0,3.3691993E0,2.0239261E2,2.887885E0,1.7567968E1,1.4439425E0,6.0380865E2,2.9360165E1,4.813142E0,1.2032855E0,4.071918E2,3.5135937E1,8.182341E0,2.6712936E1],"tree_param":{"num_deleted":"0","num_feature":"5","num_nodes":"53","size_leaf_vector":"1"}},{"base_weights":[1.1765911E-3,7.309317E-1,-6.039292E-1,1.4369304E0,2.2170557E-1,-2.714642E-1,-6.2380725E-1,1.4470176E0,4.9274382E-1,-5.2376306E-1,1.5276573E0,-5.156752E-1,-3.247268E-2,-6.914882E-1,-5.3108853E-1,1.3761327E0,1.5462469E-1,9.840702E-2,-4.3698557E-2,-7.663841E-1,-4.7770116E-1,4.4154653E-1,1.5501758E0,-7.1284854E-1,4.9665775E-2,6.18583E-1,-1.9575225E-1,-7.0263684E-1,4.029772E-1,-8.2054436E-1,-5.089117E-1,1.422274E-1,1.1511657E-2,-1.8783156E-3,-8.4260724E-2,-6.401523E-2,-3.9843597E-2,-4.1993447E-2,7.814785E-2,1.5641247E-1,4.4146176E-2,-4.8399884E-2,-1.7987639E-1,2.4471447E-2,-6.0702175E-2,1.1219305E-1,1.4869674E-2,-1.3806266E-3,-5.239306E-2,-4.6632856E-2,-7.29151E-2,6.4993024E-2,-4.1993447E-2,1.5035522E-2,-1.0481105E-1,-4.8083734E-2,-7.749167E-2],"categories":[],"categories_nodes":[],"categories_segments":[],"categories_sizes":[],"default_left":[0,0,0,0,0,0,0,0,0,0,0,0,0,0,0,0,0,0,0,0,0,0,0,0,0,0,0,0,0,0,0,0,0,0,0,0,0,0,0,0,0,0,0,0,0,0,0,0,0,0,0,0,0,0,0,0,0],"id":1,"left_children":[1,3,5,7,9,11,13,15,17,19,21,23,25,27,29,31,-1,-1,-1,33,35,37,39,41,43,45,47,49,51,53,55,-1,-1,-1,-1,-1,-1,-1,-1,-1,-1,-1,-1,-1,-1,-1,-1,-1,-1,-1,-1,-1,-1,-1,-1,-1,-1],"loss_changes":[9.3379834E2,3.4431232E2,7.4708557E0,3.111023E0,5.4413116E2,3.893219E0,6.4733887E0,6.628418E-1,3.0614214E0,3.6127777E0,4.2819214E0,3.7214022E0,3.8337786E0,7.9313354E0,2.562683E0,1.38307495E1,0E0,0E0,0E0,3.12706E0,3.632164E0,1.9455161E0,2.3799744E0,5.238225E0,1.3635032E0,1.5462854E0,1.7053939E0,3.5499573E0,1.6865404E0,7.096596E0,2.867485E0,0E0,0E0,0E0,0E0,0E0,0E0,0E0,0E0,0E0,0E0,0E0,0E0,0E0,0E0,0E0,0E0,0E0,0E0,0E0,0E0,0E0,0E0,0E0,0E0,0E0,0E0],"parents":[2147483647,0,0,1,1,2,2,3,3,4,4,5,5,6,6,7,7,8,8,9,9,10,10,11,11,12,12,13,13,14,14,15,15,19,19,20,20,21,21,22,22,23,23,24,24,25,25,26,26,27,27,28,28,29,29,30,30],"right_children":[2,4,6,8,10,12,14,16,18,20,22,24,26,28,30,32,-1,-1,-1,34,36,38,40,42,44,46,48,50,52,54,56,-1,-1,-1,-1,-1,-1,-1,-1,-1,-1,-1,-1,-1,-1,-1,-1,-1,-1,-1,-1,-1,-1,-1,-1,-1,-1],"split_conditions":[4.006E3,2.17E2,4.112E3,3.977E3,1.995E3,3E0,2.15E2,1.91E3,1.93E2,2.37E2,2.029E3,2.44E2,1E0,5.984E3,4.221E3,1.81E2,1.5462469E-1,9.840702E-2,-4.3698557E-2,1.067E3,2E0,2.34E2,3.977E3,2.35E2,4.098E3,4.044E3,2.29E2,1E0,1.86E2,1E0,5.84E3,1.422274E-1,1.1511657E-2,-1.8783156E-3,-8.4260724E-2,-6.401523E-2,-3.9843597E-2,-4.1993447E-2,7.814785E-2,1.5641247E-1,4.4146176E-2,-4.8399884E-2,-1.7987639E-1,2.4471447E-2,-6.0702175E-2,1.1219305E-1,1.4869674E-2,-1.3806266E-3,-5.239306E-2,-4.6632856E-2,-7.29151E-2,6.4993024E-2,-4.1993447E-2,1.5035522E-2,-1.0481105E-1,-4.8083734E-2,-7.749167E-2],"split_indices":[3,4,3,3,3,0,4,3,4,4,3,4,1,3,3,4,0,0,0,3,1,4,3,4,3,3,4,2,4,1,3,0,0,0,0,0,0,0,0,0,0,0,0,0,0,0,0,0,0,0,0,0,0,0,0,0,0],"split_type":[0,0,0,0,0,0,0,0,0,0,0,0,0,0,0,0,0,0,0,0,0,0,0,0,0,0,0,0,0,0,0,0,0,0,0,0,0,0,0,0,0,0,0,0,0,0,0,0,0,0,0,0,0,0,0,0,0],"sum_hessian":[2.1126802E3,9.5760486E2,1.1550754E3,4.0050998E2,5.570949E2,6.599232E1,1.0890831E3,3.9574948E2,4.7604923E0,3.5503265E2,2.0206223E2,3.2067135E1,3.3925186E1,6.258092E2,4.6327383E2,2.3951729E2,1.562322E2,3.0763245E0,1.684168E0,5.415338E1,3.0087927E2,4.522878E0,1.9753935E2,2.3581667E1,8.485468E0,6.2431116E0,2.7682074E1,6.198532E2,5.9560504E0,3.0406189E1,4.3286765E2,2.3093922E2,8.578062E0,5.125785E0,4.9027596E1,9.6345856E1,2.0453342E2,1.2131284E0,3.3097498E0,1.946793E2,2.8600454E0,2.0671076E1,2.910591E0,7.0259714E0,1.459497E0,2.344255E0,3.8988566E0,1.8479107E1,9.202967E0,6.44073E1,5.5544586E2,4.742922E0,1.2131284E0,5.837988E0,2.45682E1,3.9408337E2,3.878428E1],"tree_param":{"num_deleted":"0","num_feature":"5","num_nodes":"57","size_leaf_vector":"1"}},{"base_weights":[2.1336079E-3,6.7682487E-1,-5.390636E-1,2.684993E-1,1.4630864E0,-4.9681753E-2,-5.497912E-1,1.3271058E0,-4.4764188E-1,1.4849691E-1,4.9138474E-1,6.4027524E-1,-1.9351749E-1,-5.5573815E-1,1.8939584E-1,1.3475318E-1,5.704332E-1,-4.6561155E-1,6.066466E-1,-8.371924E-2,9.3704396E-1,-1.8691307E-2,1.0672327E-1,-9.57539E-2,-6.216473E-2,-6.16354E-1,-4.733283E-1,6.512516E-1,-4.020576E-1,-1.1776687E-2,1.23732746E-1,-3.8548738E-2,-5.895694E-2,7.675549E-2,-8.075802E-3,1.1888935E-1,4.3087967E-2,-1.393529E-2,5.5823382E-2,-6.309057E-2,-3.050676E-2,-4.521158E-2,-7.424479E-2,-6.614417E-3,8.416256E-2,-1.17893375E-1,5.0938576E-2],"categories":[],"categories_nodes":[],"categories_segments":[],"categories_sizes":[],"default_left":[0,0,0,0,0,0,0,0,0,0,0,0,0,0,0,0,0,0,0,0,0,0,0,0,0,0,0,0,0,0,0,0,0,0,0,0,0,0,0,0,0,0,0,0,0,0,0],"id":2,"left_children":[1,3,5,7,9,11,13,15,17,-1,19,21,23,25,27,-1,29,31,33,-1,35,-1,-1,-1,37,39,41,43,45,-1,-1,-1,-1,-1,-1,-1,-1,-1,-1,-1,-1,-1,-1,-1,-1,-1,-1],"loss_changes":[7.672332E2,2.9987003E2,6.093811E0,4.681931E2,6.0629883E0,2.7150407E0,5.12027E0,3.0819702E0,7.266716E0,0E0,5.835185E0,1.8721888E0,2.185793E0,5.362915E0,2.9527633E0,0E0,3.9470987E0,3.378479E0,7.9338E-1,0E0,3.6215305E-1,0E0,0E0,0E0,1.0432339E0,2.746994E0,2.4276733E0,8.6324954E-1,4.0968146E0,0E0,0E0,0E0,0E0,0E0,0E0,0E0,0E0,0E0,0E0,0E0,0E0,0E0,0E0,0E0,0E0,0E0,0E0],"parents":[2147483647,0,0,1,1,2,2,3,3,4,4,5,5,6,6,7,7,8,8,10,10,11,11,12,12,13,13,14,14,16,16,17,17,18,18,20,20,24,24,25,25,26,26,27,27,28,28],"right_children":[2,4,6,8,10,12,14,16,18,-1,20,22,24,26,28,-1,30,32,34,-1,36,-1,-1,-1,38,40,42,44,46,-1,-1,-1,-1,-1,-1,-1,-1,-1,-1,-1,-1,-1,-1,-1,-1,-1,-1],"split_conditions":[4.006E3,2.029E3,4.044E3,1.99E2,3.977E3,1E0,5.984E3,1.81E2,1.995E3,1.4849691E-1,1E0,2E0,1.5E2,2.15E2,1.94E2,1.3475318E-1,3E0,2E0,2.61E2,-8.371924E-2,2.09E2,-1.8691307E-2,1.0672327E-1,-9.57539E-2,2.68E2,5.894E3,5.854E3,1.34E2,2.44E2,-1.1776687E-2,1.23732746E-1,-3.8548738E-2,-5.895694E-2,7.675549E-2,-8.075802E-3,1.1888935E-1,4.3087967E-2,-1.393529E-2,5.5823382E-2,-6.309057E-2,-3.050676E-2,-4.521158E-2,-7.424479E-2,-6.614417E-3,8.416256E-2,-1.17893375E-1,5.0938576E-2],"split_indices":[3,3,3,4,3,1,3,4,3,0,0,0,4,4,4,0,0,2,4,0,4,0,0,0,4,3,3,4,4,0,0,0,0,0,0,0,0,0,0,0,0,0,0,0,0,0,0],"split_type":[0,0,0,0,0,0,0,0,0,0,0,0,0,0,0,0,0,0,0,0,0,0,0,0,0,0,0,0,0,0,0,0,0,0,0,0,0,0,0,0,0,0,0,0,0,0,0],"sum_hessian":[2.099198E3,9.3425055E2,1.1649475E3,6.157944E2,3.1845615E2,2.5109673E1,1.1398379E3,2.4813937E2,3.6765503E2,3.109259E2,7.5302515E0,3.7362146E0,2.1373459E1,1.1309869E3,8.850863E0,2.408567E2,7.2826614E0,3.620426E2,5.612422E0,1.6707994E0,5.8594522E0,1.463346E0,2.2728686E0,2.2127914E0,1.9160667E1,6.47929E2,4.8305795E2,4.913159E0,3.9377046E0,3.9893107E0,3.2933507E0,2.2239816E2,1.3964444E2,4.4533744E0,1.1590476E0,3.0119724E0,2.8474798E0,1.773012E1,1.430548E0,6.180121E2,2.9916948E1,4.5024847E2,3.2809483E1,1.1672204E0,3.7459383E0,1.9673434E0,1.9703611E0],"tree_param":{"num_deleted":"0","num_feature":"5","num_nodes":"47","size_leaf_vector":"1"}},{"base_weights":[3.1632553E-3,6.2956256E-1,-4.8219866E-1,2.4711093E-1,1.3953066E0,-2.3523071E-1,-5.010445E-1,1.2565414E0,-4.005371E-1,1.4173423E-1,4.579387E-1,-4.7650683E-1,-6.6096466E-3,-5.066852E-1,1.7335567E-1,1.2767594E-1,5.339216E-1,-4.1668123E-1,5.641624E-1,-7.766048E-2,8.8484997E-1,-6.074536E-1,-5.930105E-2,3.2808518E-1,-9.230418E-2,-5.601642E-1,-4.3326333E-1,6.0828185E-1,-3.743853E-1,-1.0809007E-2,1.1734294E-1,-5.5714633E-2,-3.471919E-2,7.170489E-2,-7.6329196E-3,2.5462223E-2,1.03933826E-1,-4.1448936E-2,-1.6730286E-1,2.4757713E-2,-6.653873E-2,1.0185011E-1,-2.7196899E-3,-7.271419E-2,1.8970749E-3,-6.4762816E-2,-5.110584E-2,-1.2787868E-1,-4.1609384E-2,1.7017031E-2,1.0105809E-1,-1.09210335E-1,4.778682E-2],"categories":[],"categories_nodes":[],"categories_segments":[],"categories_sizes":[],"default_left":[0,0,0,0,0,0,0,0,0,0,0,0,0,0,0,0,0,0,0,0,0,0,0,0,0,0,0,0,0,0,0,0,0,0,0,0,0,0,0,0,0,0,0,0,0,0,0,0,0,0,0,0,0],"id":3,"left_children":[1,3,5,7,9,11,13,15,17,-1,19,21,23,25,27,-1,29,31,33,-1,35,37,39,41,43,45,47,49,51,-1,-1,-1,-1,-1,-1,-1,-1,-1,-1,-1,-1,-1,-1,-1,-1,-1,-1,-1,-1,-1,-1,-1,-1],"loss_changes":[6.329523E2,2.6583017E2,5.3415833E0,3.97567E2,5.5996704E0,4.688193E0,4.2302856E0,2.789856E0,6.0090446E0,0E0,5.1278615E0,2.223815E0,1.3118755E0,3.9985962E0,2.556993E0,0E0,3.4878163E0,3.3713264E0,6.938679E-1,0E0,3.9043093E-1,5.757846E0,2.2087684E0,2.3158154E0,2.5819972E0,2.338562E0,6.1403275E0,8.557513E-1,3.5475485E0,0E0,0E0,0E0,0E0,0E0,0E0,0E0,0E0,0E0,0E0,0E0,0E0,0E0,0E0,0E0,0E0,0E0,0E0,0E0,0E0,0E0,0E0,0E0,0E0],"parents":[2147483647,0,0,1,1,2,2,3,3,4,4,5,5,6,6,7,7,8,8,10,10,11,11,12,12,13,13,14,14,16,16,17,17,18,18,20,20,21,21,22,22,23,23,24,24,25,25,26,26,27,27,28,28],"right_children":[2,4,6,8,10,12,14,16,18,-1,20,22,24,26,28,-1,30,32,34,-1,36,38,40,42,44,46,48,50,52,-1,-1,-1,-1,-1,-1,-1,-1,-1,-1,-1,-1,-1,-1,-1,-1,-1,-1,-1,-1,-1,-1,-1,-1],"split_conditions":[4.006E3,2.029E3,4.14E3,1.99E2,3.977E3,3E0,5.984E3,1.81E2,1.995E3,1.4173423E-1,1E0,2.44E2,1E0,2.15E2,1.94E2,1.2767594E-1,3E0,2E0,2.61E2,-7.766048E-2,2E0,2.35E2,4.098E3,4.044E3,1.52E2,4.758E3,4.165E3,1.58E2,2.44E2,-1.0809007E-2,1.1734294E-1,-5.5714633E-2,-3.471919E-2,7.170489E-2,-7.6329196E-3,2.5462223E-2,1.03933826E-1,-4.1448936E-2,-1.6730286E-1,2.4757713E-2,-6.653873E-2,1.0185011E-1,-2.7196899E-3,-7.271419E-2,1.8970749E-3,-6.4762816E-2,-5.110584E-2,-1.2787868E-1,-4.1609384E-2,1.7017031E-2,1.0105809E-1,-1.09210335E-1,4.778682E-2],"split_indices":[3,3,3,4,3,0,3,4,3,0,0,4,1,4,4,0,0,1,4,0,0,4,3,3,4,3,3,4,4,0,0,0,0,0,0,0,0,0,0,0,0,0,0,0,0,0,0,0,0,0,0,0,0],"split_type":[0,0,0,0,0,0,0,0,0,0,0,0,0,0,0,0,0,0,0,0,0,0,0,0,0,0,0,0,0,0,0,0,0,0,0,0,0,0,0,0,0,0,0,0,0,0,0,0,0,0,0,0,0],"sum_hessian":[2.0798733E3,9.078813E2,1.1719922E3,6.063579E2,3.0152335E2,8.404848E1,1.0879437E3,2.3661983E2,3.697381E2,2.9409766E2,7.425694E0,4.036493E1,4.3683548E1,1.0791661E3,8.777491E0,2.2943373E2,7.1861043E0,3.6421112E2,5.5269585E0,1.69756E0,5.728134E0,3.0375183E1,9.989744E0,8.328114E0,3.5355434E1,6.205446E2,4.586216E2,4.830985E0,3.9465055E0,4.0007095E0,3.1853948E0,1.1822153E2,2.459896E2,4.365401E0,1.1615577E0,1.6490555E0,4.0790787E0,2.6893959E1,3.4812257E0,7.024541E0,2.9652035E0,2.1952903E0,6.132823E0,4.4474607E0,3.0907972E1,2.1874426E2,4.0180032E2,7.665163E0,4.5095642E2,2.9937394E0,1.8372458E0,1.989573E0,1.9569324E0],"tree_param":{"num_deleted":"0","num_feature":"5","num_nodes":"53","size_leaf_vector":"1"}},{"base_weights":[3.913099E-3,5.87522E-1,-4.3250468E-1,2.2798611E-1,1.3389531E0,-2.5057456E-1,-4.5314527E-1,1.1953351E0,-3.590044E-1,1.3614498E-1,4.255386E-1,-3.0528027E-1,2.2806819E-1,-2.2258845E-1,-4.6892107E-1,1.2155259E-1,5.010331E-1,-3.7354577E-1,5.251921E-1,-7.220825E-2,8.346552E-1,-1.8010853E-1,-5.6101286E-1,8.6273175E-1,-2.946357E-1,-4.6968114E-1,2.4100425E-2,-5.171663E-1,-4.0240118E-1,-9.922792E-3,1.11749746E-1,-4.993134E-2,-3.1128077E-2,6.7068554E-2,-7.214503E-3,1.0951342E-1,3.467857E-2,-3.1878915E-2,3.7236135E-2,7.463624E-2,-6.902539E-2,3.8059484E-3,1.0563661E-1,7.179608E-2,-8.848314E-2,-5.779731E-2,-1.2137436E-2,5.065903E-2,-1.0101801E-2,-5.2542645E-2,3.3796106E-2,-7.91373E-2,-3.7826188E-2],"categories":[],"categories_nodes":[],"categories_segments":[],"categories_sizes":[],"default_left":[0,0,0,0,0,0,0,0,0,0,0,0,0,0,0,0,0,0,0,0,0,0,0,0,0,0,0,0,0,0,0,0,0,0,0,0,0,0,0,0,0,0,0,0,0,0,0,0,0,0,0,0,0],"id":4,"left_children":[1,3,5,7,9,11,13,15,17,-1,19,21,23,25,27,-1,29,31,33,-1,35,37,39,41,43,45,47,49,51,-1,-1,-1,-1,-1,-1,-1,-1,-1,-1,-1,-1,-1,-1,-1,-1,-1,-1,-1,-1,-1,-1,-1,-1],"loss_changes":[5.242617E2,2.3762231E2,4.308899E0,3.393462E2,5.272949E0,3.270337E0,3.738205E0,2.5540771E0,4.9821434E0,0E0,4.4998527E0,3.4241648E0,4.6034064E0,4.251506E0,2.9623718E0,0E0,3.0998733E0,2.7169113E0,6.0792875E-1,0E0,4.5677948E-1,5.8963804E0,6.550104E0,9.459429E-1,5.3772774E0,1.2425246E0,2.2100024E0,4.197357E0,3.642418E0,0E0,0E0,0E0,0E0,0E0,0E0,0E0,0E0,0E0,0E0,0E0,0E0,0E0,0E0,0E0,0E0,0E0,0E0,0E0,0E0,0E0,0E0,0E0,0E0],"parents":[2147483647,0,0,1,1,2,2,3,3,4,4,5,5,6,6,7,7,8,8,10,10,11,11,12,12,13,13,14,14,16,16,17,17,18,18,20,20,21,21,22,22,23,23,24,24,25,25,26,26,27,27,28,28],"right_children":[2,4,6,8,10,12,14,16,18,-1,20,22,24,26,28,-1,30,32,34,-1,36,38,40,42,44,46,48,50,52,-1,-1,-1,-1,-1,-1,-1,-1,-1,-1,-1,-1,-1,-1,-1,-1,-1,-1,-1,-1,-1,-1,-1,-1],"split_conditions":[4.006E3,2.029E3,1E0,1.99E2,3.977E3,2.64E2,4.128E3,1.81E2,1.995E3,1.3614498E-1,1E0,4E0,4.93E3,3E0,2.15E2,1.2155259E-1,3E0,2E0,2.61E2,-7.220825E-2,2.09E2,5.546E3,4.191E3,4.18E3,2.68E2,2.44E2,1E0,5.984E3,4.221E3,-9.922792E-3,1.11749746E-1,-4.993134E-2,-3.1128077E-2,6.7068554E-2,-7.214503E-3,1.0951342E-1,3.467857E-2,-3.1878915E-2,3.7236135E-2,7.463624E-2,-6.902539E-2,3.8059484E-3,1.0563661E-1,7.179608E-2,-8.848314E-2,-5.779731E-2,-1.2137436E-2,5.065903E-2,-1.0101801E-2,-5.2542645E-2,3.3796106E-2,-7.91373E-2,-3.7826188E-2],"split_indices":[3,3,2,4,3,4,3,4,3,0,0,0,3,0,4,0,0,1,4,0,4,3,3,3,4,4,1,3,3,0,0,0,0,0,0,0,0,0,0,0,0,0,0,0,0,0,0,0,0,0,0,0,0],"split_type":[0,0,0,0,0,0,0,0,0,0,0,0,0,0,0,0,0,0,0,0,0,0,0,0,0,0,0,0,0,0,0,0,0,0,0,0,0,0,0,0,0,0,0,0,0,0,0,0,0,0,0,0,0],"sum_hessian":[2.056374E3,8.796702E2,1.1767037E3,5.958692E2,2.8380103E2,1.2123694E2,1.0554668E3,2.246364E2,3.7123282E2,2.7650055E2,7.300474E0,1.0912667E2,1.2110268E1,6.856254E1,9.869043E2,2.1755891E2,7.077479E0,3.6579453E2,5.43828E0,1.717553E0,5.5829215E0,7.440999E1,3.4716686E1,5.175587E0,6.9346805E0,3.3801632E1,3.4760906E1,5.681001E2,4.1880417E2,4.01097E0,3.0665083E0,1.18804665E2,2.4698987E2,4.2743773E0,1.1639026E0,2.8281913E0,2.75473E0,5.9817593E1,1.4592392E1,2.6936204E0,3.2023064E1,1.2116834E0,3.9639037E0,2.4738412E0,4.4608393E0,2.5281874E1,8.519757E0,6.5301247E0,2.8230782E1,5.6304694E2,5.0531816E0,2.2614794E1,3.9618936E2],"tree_param":{"num_deleted":"0","num_feature":"5","num_nodes":"53","size_leaf_vector":"1"}},{"base_weights":[4.7528674E-3,5.4958147E-1,-3.8823155E-1,2.1069363E-1,1.2915268E0,-1.4186314E-2,-3.9632657E-1,1.1412642E0,-3.22181E-1,1.3146578E-1,3.9863607E-1,5.814698E-1,-1.340695E-1,-2.3411427E-1,-4.146754E-1,1.161564E-1,4.7118634E-1,-3.3530614E-1,4.8928076E-1,-6.7272976E-2,7.911112E-1,-1.1377598E-2,9.537118E-2,-8.2047425E-2,-1.7407672E-2,6.845323E-2,-2.5745547E-1,-4.365315E-1,-2.8677648E-1,-9.110792E-3,1.06791735E-1,-2.6505664E-2,-4.443728E-2,1.0080918E-3,7.0746906E-2,1.0470098E-1,3.2384675E-2,1.5240661E-2,-2.8169528E-2,-4.931557E-2,-1.4589134E-2,-4.2248566E-2,-6.936068E-2,-5.8462568E-2,-2.2924352E-2],"categories":[],"categories_nodes":[],"categories_segments":[],"categories_sizes":[],"default_left":[0,0,0,0,0,0,0,0,0,0,0,0,0,0,0,0,0,0,0,0,0,0,0,0,0,0,0,0,0,0,0,0,0,0,0,0,0,0,0,0,0,0,0,0,0],"id":5,"left_children":[1,3,5,7,9,11,13,15,17,-1,19,21,23,25,27,-1,29,31,33,-1,35,-1,-1,-1,37,-1,39,41,43,-1,-1,-1,-1,-1,-1,-1,-1,-1,-1,-1,-1,-1,-1,-1,-1],"loss_changes":[4.3515033E2,2.1386365E2,3.5695343E0,2.9086066E2,4.9869385E0,1.9380949E0,3.342682E0,2.3572083E0,4.1397743E0,0E0,3.9688807E0,1.2864832E0,1.787241E0,2.743699E0,2.773468E0,0E0,2.7685547E0,2.701313E0,6.566229E-1,0E0,4.3113995E-1,0E0,0E0,0E0,9.517844E-1,0E0,3.0177426E0,2.8978271E0,2.5092669E0,0E0,0E0,0E0,0E0,0E0,0E0,0E0,0E0,0E0,0E0,0E0,0E0,0E0,0E0,0E0,0E0],"parents":[2147483647,0,0,1,1,2,2,3,3,4,4,5,5,6,6,7,7,8,8,10,10,11,11,12,12,13,13,14,14,16,16,17,17,18,18,20,20,24,24,26,26,27,27,28,28],"right_children":[2,4,6,8,10,12,14,16,18,-1,20,22,24,26,28,-1,30,32,34,-1,36,-1,-1,-1,38,-1,40,42,44,-1,-1,-1,-1,-1,-1,-1,-1,-1,-1,-1,-1,-1,-1,-1,-1],"split_conditions":[4.006E3,2.029E3,4.044E3,1.99E2,3.977E3,1E0,1E0,1.81E2,1.995E3,1.3146578E-1,1E0,2E0,1.5E2,1.1E2,2.56E2,1.161564E-1,3E0,2E0,2.31E2,-6.7272976E-2,2.09E2,-1.1377598E-2,9.537118E-2,-8.2047425E-2,2.35E2,6.845323E-2,1.79E2,2.5E2,4.277E3,-9.110792E-3,1.06791735E-1,-2.6505664E-2,-4.443728E-2,1.0080918E-3,7.0746906E-2,1.0470098E-1,3.2384675E-2,1.5240661E-2,-2.8169528E-2,-4.931557E-2,-1.4589134E-2,-4.2248566E-2,-6.936068E-2,-5.8462568E-2,-2.2924352E-2],"split_indices":[3,3,3,4,3,1,2,4,3,0,0,0,4,4,4,0,0,2,4,0,4,0,0,0,4,0,4,4,3,0,0,0,0,0,0,0,0,0,0,0,0,0,0,0,0],"split_type":[0,0,0,0,0,0,0,0,0,0,0,0,0,0,0,0,0,0,0,0,0,0,0,0,0,0,0,0,0,0,0,0,0,0,0,0,0,0,0,0,0,0,0,0,0],"sum_hessian":[2.0303796E3,8.5065027E2,1.1797294E3,5.848161E2,2.658342E2,2.5049006E1,1.1546803E3,2.125295E2,3.722866E2,2.5866107E2,7.1731367E0,3.551682E0,2.1497324E1,1.18738174E2,1.0359421E3,2.0556837E2,6.9611125E0,3.6693826E2,5.348331E0,1.7317613E0,5.4413757E0,1.4806271E0,2.071055E0,2.2465193E0,1.9250805E1,2.2402627E0,1.1649792E2,8.826899E2,1.5325224E2,4.0202184E0,2.9408941E0,2.2527168E2,1.4166658E2,2.0006251E0,3.3477058E0,2.714209E0,2.7271664E0,1.1977902E1,7.272902E0,3.632793E1,8.016998E1,8.394672E2,4.322266E1,2.3326897E1,1.2992535E2],"tree_param":{"num_deleted":"0","num_feature":"5","num_nodes":"45","size_leaf_vector":"1"}},{"base_weights":[5.406346E-3,5.1487863E-1,-3.489532E-1,1.9493733E-1,1.2511004E0,-1.5923418E-1,-3.6337313E-1,1.0926914E0,-2.8932238E-1,1.2750599E-1,3.7429982E-1,-3.5361075E-1,2.585554E-2,-4.486929E-1,-3.3082214E-1,1.1132035E0,4.439293E-1,-3.0123848E-1,4.5782238E-1,-6.278216E-2,7.510344E-1,-4.5621184E-1,3.8026974E-2,-3.159891E-1,9.0458065E-2,-3.551871E-1,-6.783357E-1,-3.7462282E-1,-2.0903601E-1,7.418575E-2,1.1260032E-1,-8.366548E-3,1.02346756E-1,-4.8747297E-2,-2.63625E-2,6.0473897E-2,-1.0702834E-2,1.53119285E-2,9.1673695E-2,-2.8874224E-2,-1.1700821E-1,2.9919041E-2,-4.482899E-2,6.827933E-2,-1.00200765E-1,-3.7611276E-3,3.2473158E-2,-3.71319E-2,4.4247832E-2,-9.9066965E-2,-3.74311E-2,-3.5320945E-2,-9.6537136E-2,2.5603503E-2,-2.4658596E-2],"categories":[],"categories_nodes":[],"categories_segments":[],"categories_sizes":[],"default_left":[0,0,0,0,0,0,0,0,0,0,0,0,0,0,0,0,0,0,0,0,0,0,0,0,0,0,0,0,0,0,0,0,0,0,0,0,0,0,0,0,0,0,0,0,0,0,0,0,0,0,0,0,0,0,0],"id":6,"left_children":[1,3,5,7,9,11,13,15,17,-1,19,21,23,25,27,29,31,33,35,-1,37,39,41,43,45,47,49,51,53,-1,-1,-1,-1,-1,-1,-1,-1,-1,-1,-1,-1,-1,-1,-1,-1,-1,-1,-1,-1,-1,-1,-1,-1,-1,-1],"loss_changes":[3.6202734E2,1.9351797E2,3.1776733E0,2.5011995E2,4.7537537E0,3.0788102E0,2.9019928E0,2.187912E0,3.4680824E0,0E0,3.506444E0,1.6923728E0,1.0143559E0,6.2120476E0,4.183014E0,9.013367E-2,2.4829252E0,2.4547615E0,5.8494985E-1,0E0,4.8358727E-1,3.6203508E0,1.3504457E0,5.697934E0,1.1619359E0,2.9393768E0,7.7820206E0,7.0754013E0,3.7928429E0,0E0,0E0,0E0,0E0,0E0,0E0,0E0,0E0,0E0,0E0,0E0,0E0,0E0,0E0,0E0,0E0,0E0,0E0,0E0,0E0,0E0,0E0,0E0,0E0,0E0,0E0],"parents":[2147483647,0,0,1,1,2,2,3,3,4,4,5,5,6,6,7,7,8,8,10,10,11,11,12,12,13,13,14,14,15,15,16,16,17,17,18,18,20,20,21,21,22,22,23,23,24,24,25,25,26,26,27,27,28,28],"right_children":[2,4,6,8,10,12,14,16,18,-1,20,22,24,26,28,30,32,34,36,-1,38,40,42,44,46,48,50,52,54,-1,-1,-1,-1,-1,-1,-1,-1,-1,-1,-1,-1,-1,-1,-1,-1,-1,-1,-1,-1,-1,-1,-1,-1,-1,-1],"split_conditions":[4.006E3,2.029E3,4.14E3,1.99E2,3.977E3,3E0,4.636E3,1.81E2,1.995E3,1.2750599E-1,1E0,2.52E2,1.52E2,4.501E3,2.39E2,1.038E3,3E0,2.37E2,2.61E2,-6.278216E-2,2E0,2.35E2,4.098E3,2E0,4.098E3,2.75E2,1.98E2,2.36E2,2.42E2,7.418575E-2,1.1260032E-1,-8.366548E-3,1.02346756E-1,-4.8747297E-2,-2.63625E-2,6.0473897E-2,-1.0702834E-2,1.53119285E-2,9.1673695E-2,-2.8874224E-2,-1.1700821E-1,2.9919041E-2,-4.482899E-2,6.827933E-2,-1.00200765E-1,-3.7611276E-3,3.2473158E-2,-3.71319E-2,4.4247832E-2,-9.9066965E-2,-3.74311E-2,-3.5320945E-2,-9.6537136E-2,2.5603503E-2,-2.4658596E-2],"split_indices":[3,3,3,4,3,0,3,4,3,0,0,4,4,3,4,3,0,4,4,0,0,4,3,1,3,4,4,4,4,0,0,0,0,0,0,0,0,0,0,0,0,0,0,0,0,0,0,0,0,0,0,0,0,0,0],"split_type":[0,0,0,0,0,0,0,0,0,0,0,0,0,0,0,0,0,0,0,0,0,0,0,0,0,0,0,0,0,0,0,0,0,0,0,0,0,0,0,0,0,0,0,0,0,0,0,0,0,0,0,0,0,0,0],"sum_hessian":[2.0032926E3,8.2160126E2,1.1816913E3,5.735969E2,2.4800433E2,8.432281E1,1.0973685E3,2.0054898E2,3.7304797E2,2.409655E2,7.0388274E0,4.0685467E1,4.3637337E1,2.995169E2,7.978516E2,1.9370856E2,6.840416E0,3.677791E2,5.268843E0,1.7410684E0,5.297759E0,3.210875E1,8.57672E0,6.317415E0,3.7319923E1,2.1465892E2,8.485799E1,5.8527875E2,2.1257288E2,8.418851E0,1.852897E2,4.028563E0,2.811853E0,5.9788765E1,3.0799036E2,4.125255E0,1.143588E0,1.5671115E0,3.7306476E0,2.7145138E1,4.96361E0,5.830428E0,2.746292E0,2.5742443E0,3.7431712E0,2.4672024E1,1.2647898E1,2.1092761E2,3.7312975E0,4.0742966E1,4.4115017E1,5.663477E2,1.8931E1,1.5446265E1,1.971266E2],"tree_param":{"num_deleted":"0","num_feature":"5","num_nodes":"55","size_leaf_vector":"1"}},{"base_weights":[5.840765E-3,4.8282173E-1,-3.1418917E-1,1.8053696E-1,1.2161968E0,-1.6635291E-1,-3.3098072E-1,1.0461236E0,-2.6142728E-1,1.241241E-1,3.4943128E-1,-2.1359207E-1,2.4507402E-1,-8.3811474E-1,-3.2609305E-1,1.069355E0,4.190611E-1,-2.7225175E-1,4.2635712E-1,-5.867668E-2,7.1072036E-1,-1.01349555E-1,-4.4450003E-1,9.810048E-2,-1.4827062E-1,-2.4272835E-1,-1.0755197E0,-2.1391079E-1,-3.4693658E-1,7.017412E-2,1.08232036E-1,-3.6726452E-2,6.2035974E-2,-2.0811507E-2,-3.7258588E-2,-3.0917914E-3,6.459226E-2,9.791846E-2,2.5540983E-2,-1.9640164E-2,5.5062115E-2,7.088508E-2,-5.5835526E-2,6.773387E-2,-7.33316E-2,-6.51583E-2,1.8002406E-2,-1.3257249E-1,-3.415914E-2,6.631139E-3,-2.9810274E-2,-3.520265E-2,2.8740047E-2],"categories":[],"categories_nodes":[],"categories_segments":[],"categories_sizes":[],"default_left":[0,0,0,0,0,0,0,0,0,0,0,0,0,0,0,0,0,0,0,0,0,0,0,0,0,0,0,0,0,0,0,0,0,0,0,0,0,0,0,0,0,0,0,0,0,0,0,0,0,0,0,0,0],"id":7,"left_children":[1,3,5,7,9,11,13,15,17,-1,19,21,23,25,27,29,31,33,35,-1,37,39,41,-1,43,45,47,49,51,-1,-1,-1,-1,-1,-1,-1,-1,-1,-1,-1,-1,-1,-1,-1,-1,-1,-1,-1,-1,-1,-1,-1,-1],"loss_changes":[3.0186407E2,1.7581012E2,2.8828125E0,2.1582753E2,4.593445E0,2.437498E0,2.3584747E0,2.3292236E0,2.8989944E0,0E0,3.0875454E0,2.821877E0,3.939043E0,1.0815268E0,2.3885956E0,1.136322E-1,1.5662069E0,2.294567E0,6.406051E-1,0E0,5.0154185E-1,4.8012137E0,5.108252E0,0E0,5.041467E0,8.085401E-1,7.406211E-1,3.9748292E0,2.9638138E0,0E0,0E0,0E0,0E0,0E0,0E0,0E0,0E0,0E0,0E0,0E0,0E0,0E0,0E0,0E0,0E0,0E0,0E0,0E0,0E0,0E0,0E0,0E0,0E0],"parents":[2147483647,0,0,1,1,2,2,3,3,4,4,5,5,6,6,7,7,8,8,10,10,11,11,12,12,13,13,14,14,15,15,16,16,17,17,18,18,20,20,21,21,22,22,24,24,25,25,26,26,27,27,28,28],"right_children":[2,4,6,8,10,12,14,16,18,-1,20,22,24,26,28,30,32,34,36,-1,38,40,42,-1,44,46,48,50,52,-1,-1,-1,-1,-1,-1,-1,-1,-1,-1,-1,-1,-1,-1,-1,-1,-1,-1,-1,-1,-1,-1,-1,-1],"split_conditions":[4.006E3,2.029E3,1E0,2.04E2,3.977E3,2.64E2,1.04E2,1.81E2,1.995E3,1.241241E-1,1E0,4E0,2.68E2,9.9E1,1E0,1.038E3,1.27E3,2E0,2.31E2,-5.867668E-2,2.09E2,5.691E3,4.191E3,9.810048E-2,4.692E3,4.649E3,5.403E3,4.423E3,5.984E3,7.017412E-2,1.08232036E-1,-3.6726452E-2,6.2035974E-2,-2.0811507E-2,-3.7258588E-2,-3.0917914E-3,6.459226E-2,9.791846E-2,2.5540983E-2,-1.9640164E-2,5.5062115E-2,7.088508E-2,-5.5835526E-2,6.773387E-2,-7.33316E-2,-6.51583E-2,1.8002406E-2,-1.3257249E-1,-3.415914E-2,6.631139E-3,-2.9810274E-2,-3.520265E-2,2.8740047E-2],"split_indices":[3,3,2,4,3,4,4,4,3,0,0,0,4,4,1,3,3,2,4,0,4,3,3,0,3,3,3,3,3,0,0,0,0,0,0,0,0,0,0,0,0,0,0,0,0,0,0,0,0,0,0,0,0],"split_type":[0,0,0,0,0,0,0,0,0,0,0,0,0,0,0,0,0,0,0,0,0,0,0,0,0,0,0,0,0,0,0,0,0,0,0,0,0,0,0,0,0,0,0,0,0,0,0,0,0,0,0,0,0],"sum_hessian":[1.975521E3,7.9304193E2,1.1824791E3,5.624541E2,2.3058788E2,1.2172168E2,1.0607574E3,1.896526E2,3.7280148E2,2.236925E2,6.895379E0,1.0961659E2,1.210509E1,8.4984665E0,1.0522589E3,1.8219722E2,7.455382E0,3.6761996E2,5.181511E0,1.7462581E0,5.149121E0,7.4729904E1,3.488669E1,3.696009E0,8.409081E0,2.999204E0,5.499263E0,1.66641E2,8.856179E2,8.084921E0,1.741123E2,1.3515183E0,6.1038637E0,2.2613904E2,1.4148091E2,1.9595876E0,3.2219236E0,2.5153887E0,2.633732E0,6.5831024E1,8.898877E0,2.6649463E0,3.222174E1,3.4220996E0,4.9869814E0,1.2494966E0,1.7497073E0,3.4997973E0,1.9994657E0,3.854875E1,1.2809225E2,8.790098E2,6.6081376E0],"tree_param":{"num_deleted":"0","num_feature":"5","num_nodes":"53","size_leaf_vector":"1"}},{"base_weights":[6.335581E-3,4.4928673E-1,-2.8524405E-1,1.6716035E-1,1.1479157E0,-1.5573806E-1,-2.9996917E-1,1.0105209E0,-2.3253046E-1,1.2121276E-1,2.0932037E-1,6.788912E-2,-1.7697597E-1,-7.7858686E-1,-2.9534683E-1,1.0288852E0,3.917501E-1,-3.429895E-1,-1.7875704E-1,-1.6660766E-1,4.9910375E-1,-2.2070408E-1,2.062154E-1,-2.3041402E-1,-9.964733E-1,5.873781E-2,-2.9738602E-1,6.636914E-2,1.0421075E-1,-1.3901571E-2,9.448244E-2,-4.9105015E-2,-2.3418922E-2,-1.4339126E-2,-4.3500118E-2,-5.4644775E-2,4.376513E-2,8.783578E-2,-3.108716E-3,-1.2266495E-2,-4.210301E-2,9.143358E-2,-1.7563397E-2,-5.4123055E-2,2.5213337E-2,-1.2276012E-1,-3.188379E-2,-3.0064771E-2,1.7459776E-2],"categories":[],"categories_nodes":[],"categories_segments":[],"categories_sizes":[],"default_left":[0,0,0,0,0,0,0,0,0,0,0,0,0,0,0,0,0,0,0,0,0,0,0,0,0,0,0,0,0,0,0,0,0,0,0,0,0,0,0,0,0,0,0,0,0,0,0,0,0],"id":8,"left_children":[1,3,5,7,9,11,13,15,17,-1,19,-1,21,23,25,27,29,31,33,35,37,39,41,43,45,-1,47,-1,-1,-1,-1,-1,-1,-1,-1,-1,-1,-1,-1,-1,-1,-1,-1,-1,-1,-1,-1,-1,-1],"loss_changes":[2.5184622E2,1.5237378E2,2.1957169E0,1.864912E2,1.3155731E1,2.2850466E0,2.1035614E0,1.6179504E0,2.1702423E0,0E0,1.7668343E0,0E0,2.0545065E0,9.024544E-1,2.058075E0,1.3943481E-1,2.1102436E0,1.8490696E0,2.246459E0,1.9553945E0,1.8325703E0,2.0713725E0,3.6209705E0,7.3588425E-1,6.237297E-1,0E0,1.6605377E0,0E0,0E0,0E0,0E0,0E0,0E0,0E0,0E0,0E0,0E0,0E0,0E0,0E0,0E0,0E0,0E0,0E0,0E0,0E0,0E0,0E0,0E0],"parents":[2147483647,0,0,1,1,2,2,3,3,4,4,5,5,6,6,7,7,8,8,10,10,12,12,13,13,14,14,15,15,16,16,17,17,18,18,19,19,20,20,21,21,22,22,23,23,24,24,26,26],"right_children":[2,4,6,8,10,12,14,16,18,-1,20,-1,22,24,26,28,30,32,34,36,38,40,42,44,46,-1,48,-1,-1,-1,-1,-1,-1,-1,-1,-1,-1,-1,-1,-1,-1,-1,-1,-1,-1,-1,-1,-1,-1],"split_conditions":[4.02E3,2.029E3,1E0,1.97E2,3.977E3,1.1E2,1.04E2,1.81E2,2E0,1.2121276E-1,2E0,6.788912E-2,2.64E2,9.9E1,1.06E2,1.038E3,3E0,1.445E3,2.95E2,2.17E2,4E0,4E0,2.68E2,2E0,5.403E3,5.873781E-2,5.984E3,6.636914E-2,1.0421075E-1,-1.3901571E-2,9.448244E-2,-4.9105015E-2,-2.3418922E-2,-1.4339126E-2,-4.3500118E-2,-5.4644775E-2,4.376513E-2,8.783578E-2,-3.108716E-3,-1.2266495E-2,-4.210301E-2,9.143358E-2,-1.7563397E-2,-5.4123055E-2,2.5213337E-2,-1.2276012E-1,-3.188379E-2,-3.0064771E-2,1.7459776E-2],"split_indices":[3,3,2,4,3,4,4,4,1,0,0,0,4,4,4,3,0,3,4,4,0,0,4,2,3,0,3,0,0,0,0,0,0,0,0,0,0,0,0,0,0,0,0,0,0,0,0,0,0],"split_type":[0,0,0,0,0,0,0,0,0,0,0,0,0,0,0,0,0,0,0,0,0,0,0,0,0,0,0,0,0,0,0,0,0,0,0,0,0,0,0,0,0,0,0,0,0,0,0,0,0],"sum_hessian":[1.947953E3,7.730455E2,1.1749075E3,5.515522E2,2.2149329E2,1.21132744E2,1.0537748E3,1.7685472E2,3.7469748E2,2.0703784E2,1.4455439E1,2.2374442E0,1.188953E2,8.478075E0,1.0452968E3,1.7111353E2,5.7411976E0,1.209234E2,2.5377408E2,6.4774637E0,7.977975E0,1.0709781E2,1.1797492E1,2.9965801E0,5.4814954E0,1.7476368E0,1.0435491E3,7.7676873E0,1.6334584E2,3.311713E0,2.4294846E0,4.9732166E1,7.119124E1,2.2436737E2,2.9406704E1,4.0360537E0,2.44141E0,4.268189E0,3.7097857E0,7.298932E1,3.410849E1,3.6444852E0,8.1530075E0,1.748641E0,1.2479391E0,3.4821932E0,1.9993021E0,1.0367476E3,6.8014846E0],"tree_param":{"num_deleted":"0","num_feature":"5","num_nodes":"49","size_leaf_vector":"1"}},{"base_weights":[6.715088E-3,4.2480683E-1,-2.547294E-1,1.5459584E-1,1.1593552E0,-9.697212E-2,-2.667621E-1,9.723656E-1,-2.0950192E-1,1.1868888E-1,3.215784E-1,-2.7222377E-1,6.857586E-2,-3.458116E-1,-2.3672797E-1,9.9104184E-1,3.7116358E-1,-2.4767117E-1,-6.325628E-2,-5.4176826E-2,6.656245E-1,-3.757069E-1,4.8185494E-2,-2.4460691E-1,1.2609032E-1,-2.6223353E-1,-5.5189806E-1,-7.902716E-2,-2.6717877E-1,6.2748104E-2,1.004591E-1,-1.2801421E-2,9.102587E-2,-2.6364831E-2,2.4693245E-2,3.281049E-2,-3.6818217E-2,9.4028115E-2,2.2029957E-2,-2.068721E-2,-1.3650994E-1,3.0010138E-2,-4.7243085E-2,6.588104E-2,-8.688318E-2,3.774558E-2,7.327196E-4,-6.1985444E-2,-2.29122E-2,-8.3843194E-2,-2.7641872E-2,-8.523489E-2,-1.3318898E-3,6.725397E-3,-2.8219832E-2],"categories":[],"categories_nodes":[],"categories_segments":[],"categories_sizes":[],"default_left":[0,0,0,0,0,0,0,0,0,0,0,0,0,0,0,0,0,0,0,0,0,0,0,0,0,0,0,0,0,0,0,0,0,0,0,0,0,0,0,0,0,0,0,0,0,0,0,0,0,0,0,0,0,0,0],"id":9,"left_children":[1,3,5,7,9,11,13,15,17,-1,19,21,23,25,27,29,31,33,35,-1,37,39,41,43,45,47,49,51,53,-1,-1,-1,-1,-1,-1,-1,-1,-1,-1,-1,-1,-1,-1,-1,-1,-1,-1,-1,-1,-1,-1,-1,-1,-1,-1],"loss_changes":[2.102175E2,1.4668108E2,2.2202606E0,1.6160756E2,4.2048035E0,2.4971275E0,2.5269928E0,1.5092621E0,2.0826683E0,0E0,2.6472588E0,1.4007015E0,8.3651716E-1,5.0290184E0,3.8180008E0,1.653595E-1,1.9021945E0,2.418106E0,9.565781E0,0E0,5.210266E-1,5.0016255E0,1.5931045E0,4.6777744E0,1.1450405E0,2.4111147E0,6.537878E0,6.635417E0,3.3826904E0,0E0,0E0,0E0,0E0,0E0,0E0,0E0,0E0,0E0,0E0,0E0,0E0,0E0,0E0,0E0,0E0,0E0,0E0,0E0,0E0,0E0,0E0,0E0,0E0,0E0,0E0],"parents":[2147483647,0,0,1,1,2,2,3,3,4,4,5,5,6,6,7,7,8,8,10,10,11,11,12,12,13,13,14,14,15,15,16,16,17,17,18,18,20,20,21,21,22,22,23,23,24,24,25,25,26,26,27,27,28,28],"right_children":[2,4,6,8,10,12,14,16,18,-1,20,22,24,26,28,30,32,34,36,-1,38,40,42,44,46,48,50,52,54,-1,-1,-1,-1,-1,-1,-1,-1,-1,-1,-1,-1,-1,-1,-1,-1,-1,-1,-1,-1,-1,-1,-1,-1,-1,-1],"split_conditions":[4.006E3,2.029E3,4.14E3,1.97E2,3.977E3,3E0,4.636E3,1.81E2,2.84E2,1.1868888E-1,1E0,2.44E2,1.52E2,4.501E3,4.852E3,1.038E3,3E0,1.978E3,2.95E2,-5.4176826E-2,2.09E2,2.35E2,4.098E3,2E0,1.92E2,4.165E3,1.98E2,1.4E2,1.34E2,6.2748104E-2,1.004591E-1,-1.2801421E-2,9.102587E-2,-2.6364831E-2,2.4693245E-2,3.281049E-2,-3.6818217E-2,9.4028115E-2,2.2029957E-2,-2.068721E-2,-1.3650994E-1,3.0010138E-2,-4.7243085E-2,6.588104E-2,-8.688318E-2,3.774558E-2,7.327196E-4,-6.1985444E-2,-2.29122E-2,-8.3843194E-2,-2.7641872E-2,-8.523489E-2,-1.3318898E-3,6.725397E-3,-2.8219832E-2],"split_indices":[3,3,3,4,3,0,3,4,4,0,0,4,4,3,3,3,0,3,4,0,4,4,3,1,4,3,4,4,4,0,0,0,0,0,0,0,0,0,0,0,0,0,0,0,0,0,0,0,0,0,0,0,0,0,0],"split_type":[0,0,0,0,0,0,0,0,0,0,0,0,0,0,0,0,0,0,0,0,0,0,0,0,0,0,0,0,0,0,0,0,0,0,0,0,0,0,0,0,0,0,0,0,0,0,0,0,0,0,0,0,0,0,0],"sum_hessian":[1.9211803E3,7.389137E2,1.1822666E3,5.410818E2,1.9783192E2,8.442713E1,1.0978395E3,1.6617632E2,3.7490546E2,1.9113359E2,6.6983347E0,4.069859E1,4.372854E1,2.9937476E2,7.984647E2,1.6054071E2,5.6356E0,2.9675946E2,7.8145996E1,1.7449282E0,4.9534063E0,3.0632557E1,1.0066034E1,6.279872E0,3.744867E1,2.1461171E2,8.4763054E1,1.2980682E2,6.686579E2,7.4679136E0,1.530728E2,3.3220603E0,2.3135395E0,2.8792557E2,8.833888E0,3.4189285E1,4.3956707E1,2.3763375E0,2.577069E0,2.7200089E1,3.4324675E0,7.0690346E0,2.9969997E0,2.5434403E0,3.7364316E0,1.1317224E1,2.6131445E1,1.6685017E1,1.979267E2,4.0546234E1,4.421682E1,9.228205E0,1.2057862E2,2.8589628E1,6.400683E2],"tree_param":{"num_deleted":"0","num_feature":"5","num_nodes":"55","size_leaf_vector":"1"}},{"base_weights":[6.8368376E-3,3.984113E-1,-2.2986138E-1,1.4316887E-1,1.1357408E0,-1.0805429E-1,-2.4371701E-1,9.3064237E-1,-1.910245E-1,1.16487145E-1,3.0352563E-1,6.36766E-2,-1.2711954E-1,-7.0656735E-1,-2.3934545E-1,9.5523095E-1,3.5914117E-1,-2.0014304E-1,3.931945E-1,-2.7183023E-1,8.004019E-2,-1.6911303E-1,2.331457E-1,-1.9178315E-1,-9.162889E-1,-1.3909803E-1,-2.58031E-1,5.9293773E-2,9.6915916E-2,-3.6763743E-2,5.5550642E-2,-3.772601E-2,-1.651397E-2,5.42743E-2,-1.42453015E-2,2.894333E-2,-7.049071E-2,-1.30876815E-2,-6.863326E-2,7.775822E-2,-2.1562634E-2,-5.8775615E-2,2.0116663E-2,-1.1522152E-1,-3.234422E-2,1.0460366E-2,-2.126645E-2,-2.622659E-2,2.6765982E-2],"categories":[],"categories_nodes":[],"categories_segments":[],"categories_sizes":[],"default_left":[0,0,0,0,0,0,0,0,0,0,0,0,0,0,0,0,0,0,0,0,0,0,0,0,0,0,0,0,0,0,0,0,0,0,0,0,0,0,0,0,0,0,0,0,0,0,0,0,0],"id":10,"left_children":[1,3,5,7,9,11,13,15,17,-1,19,-1,21,23,25,27,29,31,33,35,-1,37,39,41,43,45,47,-1,-1,-1,-1,-1,-1,-1,-1,-1,-1,-1,-1,-1,-1,-1,-1,-1,-1,-1,-1,-1,-1],"loss_changes":[1.7581253E2,1.3432986E2,1.9689789E0,1.4018546E2,4.098068E0,1.8210989E0,1.9771194E0,1.8867645E0,2.0728292E0,0E0,2.3795764E0,0E0,1.8597162E0,8.404417E-1,1.9352608E0,1.8998718E-1,1.3670533E0,2.2268696E0,5.651634E-1,1.2373204E0,0E0,2.0527313E0,3.339303E0,7.3896027E-1,5.257077E-1,3.0251772E0,2.0422325E0,0E0,0E0,0E0,0E0,0E0,0E0,0E0,0E0,0E0,0E0,0E0,0E0,0E0,0E0,0E0,0E0,0E0,0E0,0E0,0E0,0E0,0E0],"parents":[2147483647,0,0,1,1,2,2,3,3,4,4,5,5,6,6,7,7,8,8,10,10,12,12,13,13,14,14,15,15,16,16,17,17,18,18,19,19,21,21,22,22,23,23,24,24,25,25,26,26],"right_children":[2,4,6,8,10,12,14,16,18,-1,20,-1,22,24,26,28,30,32,34,36,-1,38,40,42,44,46,48,-1,-1,-1,-1,-1,-1,-1,-1,-1,-1,-1,-1,-1,-1,-1,-1,-1,-1,-1,-1,-1,-1],"split_conditions":[4.006E3,2.029E3,1E0,2.04E2,3.977E3,1.1E2,1.04E2,1.81E2,1.995E3,1.16487145E-1,2E0,6.36766E-2,2.64E2,9.9E1,1E0,1.038E3,1.27E3,2.37E2,2.61E2,2.09E2,8.004019E-2,2.58E2,4.93E3,4.649E3,4E0,4.423E3,5.984E3,5.9293773E-2,9.6915916E-2,-3.6763743E-2,5.5550642E-2,-3.772601E-2,-1.651397E-2,5.42743E-2,-1.42453015E-2,2.894333E-2,-7.049071E-2,-1.30876815E-2,-6.863326E-2,7.775822E-2,-2.1562634E-2,-5.8775615E-2,2.0116663E-2,-1.1522152E-1,-3.234422E-2,1.0460366E-2,-2.126645E-2,-2.622659E-2,2.6765982E-2],"split_indices":[3,3,2,4,3,4,4,4,3,0,0,0,4,4,1,3,3,4,4,4,0,4,3,3,0,3,3,0,0,0,0,0,0,0,0,0,0,0,0,0,0,0,0,0,0,0,0,0,0],"split_type":[0,0,0,0,0,0,0,0,0,0,0,0,0,0,0,0,0,0,0,0,0,0,0,0,0,0,0,0,0,0,0,0,0,0,0,0,0,0,0,0,0,0,0,0,0,0,0,0,0],"sum_hessian":[1.8948948E3,7.136336E2,1.1812611E3,5.3100793E2,1.8262564E2,1.21544395E2,1.0597168E3,1.5767862E2,3.733293E2,1.7606303E2,6.562607E0,2.224907E0,1.1931949E2,8.412354E0,1.0513044E3,1.5053065E2,7.1479597E0,3.6823923E2,5.090086E0,3.2510211E0,3.3115857E0,1.0733842E2,1.1981064E1,2.9892888E0,5.4230657E0,1.6649704E2,8.848074E2,7.185881E0,1.4334477E2,1.3349366E0,5.813023E0,5.9152008E1,3.0908722E2,3.9687865E0,1.1212996E0,1.560417E0,1.6906041E0,1.01116295E2,6.222129E0,5.0824738E0,6.8985906E0,1.2419895E0,1.7472992E0,3.2043486E0,2.2187169E0,3.8508625E1,1.2798841E2,8.782335E2,6.573846E0],"tree_param":{"num_deleted":"0","num_feature":"5","num_nodes":"49","size_leaf_vector":"1"}},{"base_weights":[7.008104E-3,3.7026855E-1,-2.0916532E-1,1.3240458E-1,1.070435E0,-2.4223769E-1,-1.645705E-1,9.0130186E-1,-1.6983019E-1,1.1455543E-1,1.8786888E-1,-2.5983328E-1,6.473008E-2,-1.4485393E-1,-3.8566068E-1,9.209807E-1,3.283014E-1,-2.6944688E-1,-1.21631265E-1,-1.2120299E-1,4.3349224E-1,-2.4784765E-1,-6.3695234E-1,-2.473339E-1,3.2239476E-1,-1.7286988E-1,2.1446311E-1,-8.762453E-1,-2.1918216E-1,8.408726E-2,1.0233229E-1,-1.40551375E-2,8.650223E-2,-4.049314E-2,-1.7052189E-2,-9.155131E-3,-3.4020435E-2,-4.9309757E-2,4.5835618E-2,9.055257E-2,-1.3972397E-3,-2.0102806E-2,-3.5016373E-2,3.3138745E-2,-8.393535E-2,7.952876E-3,-6.321872E-2,1.07220985E-1,1.2301982E-2,-1.4337979E-2,-4.945194E-2,-4.916076E-2,3.6776993E-2,8.011707E-3,-1.0543468E-1,1.4693252E-2,-4.3465912E-2],"categories":[],"categories_nodes":[],"categories_segments":[],"categories_sizes":[],"default_left":[0,0,0,0,0,0,0,0,0,0,0,0,0,0,0,0,0,0,0,0,0,0,0,0,0,0,0,0,0,0,0,0,0,0,0,0,0,0,0,0,0,0,0,0,0,0,0,0,0,0,0,0,0,0,0,0,0],"id":11,"left_children":[1,3,5,7,9,11,13,15,17,-1,19,21,23,25,27,29,31,33,35,37,39,41,43,45,47,49,51,53,55,-1,-1,-1,-1,-1,-1,-1,-1,-1,-1,-1,-1,-1,-1,-1,-1,-1,-1,-1,-1,-1,-1,-1,-1,-1,-1,-1,-1],"loss_changes":[1.469965E2,1.1616656E2,1.6909752E0,1.21555534E2,1.1516052E1,3.6449661E0,2.1361265E0,1.3615952E0,1.7718353E0,0E0,1.1970145E0,2.7146149E0,3.0722432E0,4.7007246E0,3.1213975E0,3.0459595E-1,1.7455732E0,1.562501E0,1.6461644E0,1.8332844E0,1.8330482E0,2.8879814E0,3.989964E0,2.2387667E0,2.9804456E0,4.0109205E0,3.8563251E0,1.7785053E0,2.5587163E0,0E0,0E0,0E0,0E0,0E0,0E0,0E0,0E0,0E0,0E0,0E0,0E0,0E0,0E0,0E0,0E0,0E0,0E0,0E0,0E0,0E0,0E0,0E0,0E0,0E0,0E0,0E0,0E0],"parents":[2147483647,0,0,1,1,2,2,3,3,4,4,5,5,6,6,7,7,8,8,10,10,11,11,12,12,13,13,14,14,15,15,16,16,17,17,18,18,19,19,20,20,21,21,22,22,23,23,24,24,25,25,26,26,27,27,28,28],"right_children":[2,4,6,8,10,12,14,16,18,-1,20,22,24,26,28,30,32,34,36,38,40,42,44,46,48,50,52,54,56,-1,-1,-1,-1,-1,-1,-1,-1,-1,-1,-1,-1,-1,-1,-1,-1,-1,-1,-1,-1,-1,-1,-1,-1,-1,-1,-1,-1],"split_conditions":[4.02E3,2.029E3,2.15E2,1.97E2,3.977E3,5.894E3,5.84E3,1.81E2,2E0,1.1455543E-1,2E0,2.12E2,1.65E2,5.691E3,2.3E2,2E0,3E0,1.445E3,2.95E2,2.17E2,2.07E2,5.305E3,1E0,1.5E2,5.912E3,5.564E3,1E0,2E0,2.5E2,8.408726E-2,1.0233229E-1,-1.40551375E-2,8.650223E-2,-4.049314E-2,-1.7052189E-2,-9.155131E-3,-3.4020435E-2,-4.9309757E-2,4.5835618E-2,9.055257E-2,-1.3972397E-3,-2.0102806E-2,-3.5016373E-2,3.3138745E-2,-8.393535E-2,7.952876E-3,-6.321872E-2,1.07220985E-1,1.2301982E-2,-1.4337979E-2,-4.945194E-2,-4.916076E-2,3.6776993E-2,8.011707E-3,-1.0543468E-1,1.4693252E-2,-4.3465912E-2],"split_indices":[3,3,4,4,3,3,3,4,1,0,0,4,4,3,4,2,0,3,4,4,4,3,1,4,3,3,0,0,4,0,0,0,0,0,0,0,0,0,0,0,0,0,0,0,0,0,0,0,0,0,0,0,0,0,0,0,0],"split_type":[0,0,0,0,0,0,0,0,0,0,0,0,0,0,0,0,0,0,0,0,0,0,0,0,0,0,0,0,0,0,0,0,0,0,0,0,0,0,0,0,0,0,0,0,0,0,0,0,0,0,0,0,0,0,0,0,0],"sum_hessian":[1.8699308E3,6.973622E2,1.1725686E3,5.21414E2,1.7594818E2,6.70719E2,5.018497E2,1.4656491E2,3.748491E2,1.618725E2,1.4075675E1,6.345024E2,3.6216557E1,4.6227936E2,3.9570347E1,1.4111134E2,5.453557E0,1.20731995E2,2.5411708E2,6.457123E0,7.6185527E0,6.165639E2,1.7938486E1,1.6397383E1,1.9819176E1,4.2932385E2,3.2955486E1,8.945633E0,3.0624714E1,8.432354E1,5.678781E1,3.3047876E0,2.1487694E0,4.964562E1,7.108637E1,2.2462335E2,2.9493738E1,4.0241013E0,2.4330213E0,3.2093291E0,4.4092236E0,4.2503415E2,1.9152977E2,2.9910836E0,1.4947401E1,9.295719E0,7.1016636E0,3.2434094E0,1.6575766E1,3.945919E2,3.4731968E1,5.485365E0,2.7470121E1,1.4907615E0,7.4548717E0,1.14641695E1,1.9160545E1],"tree_param":{"num_deleted":"0","num_feature":"5","num_nodes":"57","size_leaf_vector":"1"}},{"base_weights":[7.0797214E-3,3.4961557E-1,-1.8696536E-1,1.22350715E-1,1.0956193E0,6.677606E-2,-1.9250697E-1,8.49563E-1,-1.6020843E-1,1.1285155E-1,2.7940193E-1,5.6691146E-1,-3.3968776E-2,-8.296802E-2,-2.0498732E-1,8.879368E-1,3.3110437E-1,-3.64723E-1,-1.3012771E-1,-4.8536967E-2,6.017343E-1,-4.908652E-3,8.9477964E-2,-6.557088E-2,6.64437E-2,-1.3411798E-1,2.1759264E-1,-7.186713E-1,-2.012296E-1,8.057855E-2,9.942712E-2,-1.0008999E-2,7.503796E-2,-7.614305E-2,-1.649086E-2,1.5346353E-3,-1.7841503E-2,8.765908E-2,1.8538214E-2,2.1697683E-2,-2.0362576E-2,-5.2214996E-3,-4.4802718E-2,5.5491924E-2,-2.4691595E-2,-1.6758936E-2,-1.0735321E-1,-2.1760434E-2,-1.0739175E-2],"categories":[],"categories_nodes":[],"categories_segments":[],"categories_sizes":[],"default_left":[0,0,0,0,0,0,0,0,0,0,0,0,0,0,0,0,0,0,0,0,0,0,0,0,0,0,0,0,0,0,0,0,0,0,0,0,0,0,0,0,0,0,0,0,0,0,0,0,0],"id":12,"left_children":[1,3,5,7,9,11,13,15,17,-1,19,21,23,25,27,29,31,33,35,-1,37,-1,-1,-1,39,41,43,45,47,-1,-1,-1,-1,-1,-1,-1,-1,-1,-1,-1,-1,-1,-1,-1,-1,-1,-1,-1,-1],"loss_changes":[1.2285296E2,1.1318763E2,1.6719933E0,1.05640785E2,3.872055E0,1.3273231E0,1.5619354E0,2.5676346E0,2.2325583E0,0E0,2.1090665E0,9.344275E-1,1.4514797E0,1.8711375E0,1.8554535E0,3.6353302E-1,2.1554418E0,3.597435E0,2.2832613E0,0E0,4.8198962E-1,0E0,0E0,0E0,8.7044024E-1,2.6249118E0,2.9270396E0,1.2155435E0,1.5593338E0,0E0,0E0,0E0,0E0,0E0,0E0,0E0,0E0,0E0,0E0,0E0,0E0,0E0,0E0,0E0,0E0,0E0,0E0,0E0,0E0],"parents":[2147483647,0,0,1,1,2,2,3,3,4,4,5,5,6,6,7,7,8,8,10,10,11,11,12,12,13,13,14,14,15,15,16,16,17,17,18,18,20,20,24,24,25,25,26,26,27,27,28,28],"right_children":[2,4,6,8,10,12,14,16,18,-1,20,22,24,26,28,30,32,34,36,-1,38,-1,-1,-1,40,42,44,46,48,-1,-1,-1,-1,-1,-1,-1,-1,-1,-1,-1,-1,-1,-1,-1,-1,-1,-1,-1,-1],"split_conditions":[4.006E3,2.029E3,4.044E3,2.14E2,3.977E3,1E0,1E0,1.81E2,2.33E2,1.1285155E-1,1E0,2E0,1.5E2,5.691E3,1.02E2,2E0,1.69E3,1.347E3,2.51E2,-4.8536967E-2,2.09E2,-4.908652E-3,8.9477964E-2,-6.557088E-2,2.36E2,5.345E3,4E0,9.9E1,2.56E2,8.057855E-2,9.942712E-2,-1.0008999E-2,7.503796E-2,-7.614305E-2,-1.649086E-2,1.5346353E-3,-1.7841503E-2,8.765908E-2,1.8538214E-2,2.1697683E-2,-2.0362576E-2,-5.2214996E-3,-4.4802718E-2,5.5491924E-2,-2.4691595E-2,-1.6758936E-2,-1.0735321E-1,-2.1760434E-2,-1.0739175E-2],"split_indices":[3,3,3,4,3,1,2,4,4,0,0,0,4,3,4,2,3,3,4,0,4,0,0,0,4,3,0,4,4,0,0,0,0,0,0,0,0,0,0,0,0,0,0,0,0,0,0,0,0],"split_type":[0,0,0,0,0,0,0,0,0,0,0,0,0,0,0,0,0,0,0,0,0,0,0,0,0,0,0,0,0,0,0,0,0,0,0,0,0,0,0,0,0,0,0,0,0,0,0,0,0],"sum_hessian":[1.8463354E3,6.674049E2,1.1789305E3,5.124535E2,1.549514E2,2.4960867E1,1.1539697E3,1.4283571E2,3.6961777E2,1.485805E2,6.3708916E0,3.409185E0,2.1551683E1,1.1881231E2,1.0351573E3,1.3232874E2,1.0506977E1,4.596736E1,3.2365042E2,1.7390307E0,4.631861E0,1.4796004E0,1.9295845E0,2.2277308E0,1.9323952E1,1.0200644E2,1.6805868E1,6.13579E0,1.0290216E3,7.949257E1,5.2836163E1,5.555167E0,4.9518104E0,1.4456006E1,3.1511354E1,8.082698E1,2.4282344E2,2.124173E0,2.507688E0,1.2534163E1,6.7897882E0,8.182387E1,2.0182571E1,9.622998E0,7.182869E0,2.9801016E0,3.155688E0,8.750127E2,1.5400888E2],"tree_param":{"num_deleted":"0","num_feature":"5","num_nodes":"49","size_leaf_vector":"1"}},{"base_weights":[7.118438E-3,3.2696614E-1,-1.6861661E-1,1.1294907E-1,1.0782982E0,-1.7166775E-1,2.1501274E-1,8.558007E-1,-1.3139878E-1,1.1134098E-1,2.6447666E-1,-1.6670315E-1,-4.8166326E-1,5.916318E-1,-2.695433E-1,4.5886177E-1,8.7247396E-1,-1.4227708E-1,4.324405E-1,-4.5543887E-2,5.737025E-1,-2.0033516E-1,-1.21729165E-1,-1.4069334E-2,-9.2203784E-1,-8.396823E-3,7.7830976E-1,-9.365072E-2,4.9341265E-2,-6.3205375E-3,7.283893E-2,9.511436E-2,7.904851E-2,-8.010284E-3,-2.4098122E-2,5.5057585E-2,-1.196926E-2,8.466988E-2,1.7306125E-2,-2.1415547E-2,2.1484766E-2,-1.6851168E-3,-1.6545659E-2,-7.5073965E-2,2.1184137E-2,-1.3283746E-1,-3.1097755E-2,3.155261E-2,9.714713E-2],"categories":[],"categories_nodes":[],"categories_segments":[],"categories_sizes":[],"default_left":[0,0,0,0,0,0,0,0,0,0,0,0,0,0,0,0,0,0,0,0,0,0,0,0,0,0,0,0,0,0,0,0,0,0,0,0,0,0,0,0,0,0,0,0,0,0,0,0,0],"id":13,"left_children":[1,3,5,7,9,11,13,15,17,-1,19,21,23,25,27,29,31,33,35,-1,37,39,41,43,45,-1,47,-1,-1,-1,-1,-1,-1,-1,-1,-1,-1,-1,-1,-1,-1,-1,-1,-1,-1,-1,-1,-1,-1],"loss_changes":[1.02633446E2,1.0399115E2,1.4163437E0,9.178602E1,3.8039246E0,1.7199478E0,1.9374877E0,4.2787933E-1,2.3978686E0,0E0,1.8738439E0,1.7193489E0,3.6747828E0,7.9622126E-1,2.979892E0,1.0526875E0,1.5602112E-2,2.278646E0,5.523207E-1,0E0,4.5608485E-1,3.8218021E0,2.2709494E0,1.7735859E0,1.8730769E0,0E0,1.08059645E-1,0E0,0E0,0E0,0E0,0E0,0E0,0E0,0E0,0E0,0E0,0E0,0E0,0E0,0E0,0E0,0E0,0E0,0E0,0E0,0E0,0E0,0E0],"parents":[2147483647,0,0,1,1,2,2,3,3,4,4,5,5,6,6,7,7,8,8,10,10,11,11,12,12,13,13,14,14,15,15,16,16,17,17,18,18,20,20,21,21,22,22,23,23,24,24,26,26],"right_children":[2,4,6,8,10,12,14,16,18,-1,20,22,24,26,28,30,32,34,36,-1,38,40,42,44,46,-1,48,-1,-1,-1,-1,-1,-1,-1,-1,-1,-1,-1,-1,-1,-1,-1,-1,-1,-1,-1,-1,-1,-1],"split_conditions":[4.006E3,2.029E3,5.984E3,1.81E2,3.977E3,5.958E3,1.94E2,1.038E3,1.995E3,1.1134098E-1,1E0,2.15E2,2E0,1.34E2,2.44E2,2E0,1.51E2,2E0,2.61E2,-4.5543887E-2,2.09E2,5.894E3,2.34E2,1E0,4E0,-8.396823E-3,1.58E2,-9.365072E-2,4.9341265E-2,-6.3205375E-3,7.283893E-2,9.511436E-2,7.904851E-2,-8.010284E-3,-2.4098122E-2,5.5057585E-2,-1.196926E-2,8.466988E-2,1.7306125E-2,-2.1415547E-2,2.1484766E-2,-1.6851168E-3,-1.6545659E-2,-7.5073965E-2,2.1184137E-2,-1.3283746E-1,-3.1097755E-2,3.155261E-2,9.714713E-2],"split_indices":[3,3,3,4,3,3,4,3,3,0,0,4,2,4,4,0,4,2,4,0,4,3,4,0,0,0,4,0,0,0,0,0,0,0,0,0,0,0,0,0,0,0,0,0,0,0,0,0,0],"split_type":[0,0,0,0,0,0,0,0,0,0,0,0,0,0,0,0,0,0,0,0,0,0,0,0,0,0,0,0,0,0,0,0,0,0,0,0,0,0,0,0,0,0,0,0,0,0,0,0,0],"sum_hessian":[1.8239625E3,6.464771E2,1.1774854E3,5.0404904E2,1.424281E2,1.1687424E3,8.742933E0,1.24140915E2,3.799081E2,1.3618443E2,6.243657E0,1.1518335E3,1.6908985E1,4.795036E0,3.9478977E0,6.153996E0,1.17986916E2,3.7345068E2,6.4574184E0,1.7339572E0,4.5097E0,6.570386E2,4.9479486E2,8.701548E0,8.2074375E0,1.1572105E0,3.6378253E0,1.9850909E0,1.9628069E0,2.3559957E0,3.7980003E0,5.480235E1,6.318457E1,2.3023564E2,1.4321506E2,5.3216166E0,1.1358018E0,2.0199502E0,2.4897497E0,6.3634076E2,2.0697844E1,1.4600195E2,3.487929E2,1.4969585E0,7.204589E0,4.224433E0,3.9830043E0,1.8467634E0,1.7910618E0],"tree_param":{"num_deleted":"0","num_feature":"5","num_nodes":"49","size_leaf_vector":"1"}},{"base_weights":[7.1630734E-3,2.9708204E-1,-1.5713601E-1,1.0442706E-1,9.065881E-1,-2.1115129E-1,-1.3266325E-1,8.246221E-1,-1.18301556E-1,1.0999513E-1,1.1927073E-1,-3.3128402E-1,-9.006773E-2,6.544362E-3,-1.5968089E-1,7.351466E-1,9.429114E-1,3.0601913E-1,-1.3181356E-1,-1.20689325E-1,2.7031383E-1,-2.845391E-1,-7.278502E-1,2.5380984E-1,-1.6350527E-1,-7.028339E-1,6.547919E-2,1.4671151E-1,-1.7355755E-1,1.6279308E-2,7.675608E-2,9.74321E-2,3.8837537E-2,-3.0761017E-3,7.837082E-2,-1.713061E-2,1.5425644E-3,1.4459132E-2,-4.2575166E-2,5.387296E-2,-7.078092E-3,-1.8035816E-2,-4.765493E-2,-3.524163E-2,-1.0117129E-1,-5.8229446E-2,4.554335E-2,1.3751469E-2,-2.238019E-2,-9.706427E-2,3.9059486E-2,1.2072519E-3,6.310889E-2,7.2860755E-2,-1.0120236E-2,-2.0913718E-2,-8.189175E-3],"categories":[],"categories_nodes":[],"categories_segments":[],"categories_sizes":[],"default_left":[0,0,0,0,0,0,0,0,0,0,0,0,0,0,0,0,0,0,0,0,0,0,0,0,0,0,0,0,0,0,0,0,0,0,0,0,0,0,0,0,0,0,0,0,0,0,0,0,0,0,0,0,0,0,0,0,0],"id":14,"left_children":[1,3,5,7,9,11,13,15,17,-1,19,21,23,25,27,29,31,33,35,37,39,41,43,45,47,49,51,53,55,-1,-1,-1,-1,-1,-1,-1,-1,-1,-1,-1,-1,-1,-1,-1,-1,-1,-1,-1,-1,-1,-1,-1,-1,-1,-1,-1,-1],"loss_changes":[8.598197E1,7.657416E1,1.4950485E0,7.985872E1,2.3721771E1,5.171274E0,2.9933987E0,5.5126953E-1,2.2228236E0,0E0,1.1929843E0,3.1131725E0,4.573219E0,5.492517E0,2.8585339E0,1.201191E0,4.419365E-1,1.9624501E0,2.1518793E0,1.1183547E0,1.8652414E0,3.152009E0,1.5878096E0,5.654743E0,2.725733E0,3.3303685E0,3.653465E0,4.316872E0,2.0634193E0,0E0,0E0,0E0,0E0,0E0,0E0,0E0,0E0,0E0,0E0,0E0,0E0,0E0,0E0,0E0,0E0,0E0,0E0,0E0,0E0,0E0,0E0,0E0,0E0,0E0,0E0,0E0,0E0],"parents":[2147483647,0,0,1,1,2,2,3,3,4,4,5,5,6,6,7,7,8,8,10,10,11,11,12,12,13,13,14,14,15,15,16,16,17,17,18,18,19,19,20,20,21,21,22,22,23,23,24,24,25,25,26,26,27,27,28,28],"right_children":[2,4,6,8,10,12,14,16,18,-1,20,22,24,26,28,30,32,34,36,38,40,42,44,46,48,50,52,54,56,-1,-1,-1,-1,-1,-1,-1,-1,-1,-1,-1,-1,-1,-1,-1,-1,-1,-1,-1,-1,-1,-1,-1,-1,-1,-1,-1,-1],"split_conditions":[4.044E3,2.029E3,4.636E3,1.81E2,3.977E3,3E0,4.852E3,2E0,2.15E2,1.0999513E-1,2E0,4.583E3,1E0,1.4E2,1.34E2,1.038E3,1.77E2,1.84E3,2.84E2,2.09E2,2E0,2E0,2E0,1.52E2,4.14E3,4.789E3,2.64E2,2E0,2.39E2,1.6279308E-2,7.675608E-2,9.74321E-2,3.8837537E-2,-3.0761017E-3,7.837082E-2,-1.713061E-2,1.5425644E-3,1.4459132E-2,-4.2575166E-2,5.387296E-2,-7.078092E-3,-1.8035816E-2,-4.765493E-2,-3.524163E-2,-1.0117129E-1,-5.8229446E-2,4.554335E-2,1.3751469E-2,-2.238019E-2,-9.706427E-2,3.9059486E-2,1.2072519E-3,6.310889E-2,7.2860755E-2,-1.0120236E-2,-2.0913718E-2,-8.189175E-3],"split_indices":[3,3,3,4,3,0,3,2,4,0,0,3,1,4,4,3,4,3,4,4,2,0,2,4,3,3,4,1,4,0,0,0,0,0,0,0,0,0,0,0,0,0,0,0,0,0,0,0,0,0,0,0,0,0,0,0,0],"split_type":[0,0,0,0,0,0,0,0,0,0,0,0,0,0,0,0,0,0,0,0,0,0,0,0,0,0,0,0,0,0,0,0,0,0,0,0,0,0,0,0,0,0,0,0,0,0,0,0,0,0,0,0,0,0,0,0,0],"sum_hessian":[1.8030963E3,6.51921E2,1.1511753E3,4.9623917E2,1.5568184E2,3.5656073E2,7.946146E2,1.1657866E2,3.7966052E2,1.2466687E2,3.1014965E1,1.7811171E2,1.7844902E2,1.2927687E2,6.6533777E2,7.048085E1,4.6097805E1,1.104866E1,3.6861185E2,1.2058598E1,1.8956366E1,1.6086714E2,1.7244564E1,3.0970564E1,1.4747845E2,9.078344E0,1.20198524E2,2.8413088E1,6.369247E2,4.1004066E0,6.638045E1,4.2910313E1,3.1874907E0,7.0288134E0,4.019847E0,2.90524E2,7.8087875E1,6.731204E0,5.327394E0,1.0284123E1,8.672242E0,1.0554163E2,5.532551E1,8.389802E0,8.854762E0,5.6505446E0,2.532002E1,2.4397541E1,1.2308091E2,7.3824797E0,1.6958647E0,1.1076142E2,9.437101E0,7.9094086E0,2.050368E1,4.5790836E2,1.7901633E2],"tree_param":{"num_deleted":"0","num_feature":"5","num_nodes":"57","size_leaf_vector":"1"}},{"base_weights":[7.1379407E-3,2.8291947E-1,-1.3873418E-1,9.6581325E-2,9.905173E-1,-5.363814E-1,-1.3595052E-1,7.939779E-1,-1.0636768E-1,1.0879014E-1,1.5781154E-1,9.137836E-2,-1.0594121E-1,-1.3876544E-1,2.1398364E-1,7.0246696E-1,9.16927E-1,2.8479585E-1,-1.1871214E-1,2.1484964E-2,5.664673E-2,4.0448822E-2,-3.201339E-2,1.6545309E-1,-1.4317484E-1,5.675995E-1,-2.4207975E-1,1.0386026E-1,6.1867494E-2,9.495925E-2,3.674017E-2,-2.8049995E-3,7.396821E-2,-2.8913597E-2,-8.650933E-3,2.0473847E-2,-9.0774685E-2,-3.4502797E-2,6.914082E-2,-1.37583865E-2,-4.9621914E-2,-9.191527E-3,7.5330645E-2,-8.666825E-2,4.6806704E-2],"categories":[],"categories_nodes":[],"categories_segments":[],"categories_sizes":[],"default_left":[0,0,0,0,0,0,0,0,0,0,0,0,0,0,0,0,0,0,0,0,0,0,0,0,0,0,0,0,0,0,0,0,0,0,0,0,0,0,0,0,0,0,0,0,0],"id":15,"left_children":[1,3,5,7,9,11,13,15,17,-1,19,21,-1,23,25,27,29,31,33,35,-1,-1,-1,37,39,41,43,-1,-1,-1,-1,-1,-1,-1,-1,-1,-1,-1,-1,-1,-1,-1,-1,-1,-1],"loss_changes":[7.182328E1,8.1342224E1,1.2196808E0,6.943793E1,1.0259842E1,2.650717E0,1.1732922E0,5.999527E-1,1.8708143E0,0E0,8.0335283E-1,7.0361483E-1,0E0,1.5694256E0,1.694942E0,1.263279E0,4.3925095E-1,1.7188935E0,2.0028596E0,2.2320232E0,0E0,0E0,0E0,4.7833204E0,2.1747952E0,7.72123E-1,2.5875168E0,0E0,0E0,0E0,0E0,0E0,0E0,0E0,0E0,0E0,0E0,0E0,0E0,0E0,0E0,0E0,0E0,0E0,0E0],"parents":[2147483647,0,0,1,1,2,2,3,3,4,4,5,5,6,6,7,7,8,8,10,10,11,11,13,13,14,14,15,15,16,16,17,17,18,18,19,19,23,23,24,24,25,25,26,26],"right_children":[2,4,6,8,10,12,14,16,18,-1,20,22,-1,24,26,28,30,32,34,36,-1,-1,-1,38,40,42,44,-1,-1,-1,-1,-1,-1,-1,-1,-1,-1,-1,-1,-1,-1,-1,-1,-1,-1],"split_conditions":[4.02E3,2.029E3,1.02E2,1.81E2,3.977E3,9.9E1,5.984E3,2E0,2.15E2,1.0879014E-1,2.52E2,4E0,-1.0594121E-1,1.15E2,1.94E2,1E0,1.77E2,1.84E3,2.37E2,2.36E2,5.664673E-2,4.0448822E-2,-3.201339E-2,4.867E3,5.958E3,1.34E2,2.44E2,1.0386026E-1,6.1867494E-2,9.495925E-2,3.674017E-2,-2.8049995E-3,7.396821E-2,-2.8913597E-2,-8.650933E-3,2.0473847E-2,-9.0774685E-2,-3.4502797E-2,6.914082E-2,-1.37583865E-2,-4.9621914E-2,-9.191527E-3,7.5330645E-2,-8.666825E-2,4.6806704E-2],"split_indices":[3,3,4,4,3,4,3,2,4,0,4,0,0,4,4,2,4,3,4,4,0,0,0,3,3,4,4,0,0,0,0,0,0,0,0,0,0,0,0,0,0,0,0,0,0],"split_type":[0,0,0,0,0,0,0,0,0,0,0,0,0,0,0,0,0,0,0,0,0,0,0,0,0,0,0,0,0,0,0,0,0,0,0,0,0,0,0,0,0,0,0,0,0],"sum_hessian":[1.7833925E3,6.16644E2,1.1667484E3,4.890061E2,1.276379E2,6.7783012E0,1.1599701E3,1.0957156E2,3.7943454E2,1.1399934E2,1.3638558E1,3.455809E0,3.3224924E0,1.1513123E3,8.657877E0,6.666573E1,4.290583E1,1.093278E1,3.6850177E2,1.1016167E1,2.6223922E0,1.9722443E0,1.4835647E0,1.592712E1,1.1353851E3,4.738919E0,3.9189575E0,1.1028676E1,5.563706E1,3.98113E1,3.0945308E0,7.0337133E0,3.899067E0,5.7296806E1,3.1120496E2,9.852774E0,1.1633931E0,8.257024E0,7.6700964E0,1.119053E3,1.6332144E1,1.1521733E0,3.5867457E0,1.9677844E0,1.9511732E0],"tree_param":{"num_deleted":"0","num_feature":"5","num_nodes":"45","size_leaf_vector":"1"}},{"base_weights":[7.1274433E-3,2.5861242E-1,-1.2820286E-1,8.416271E-2,8.4056205E-1,-5.003983E-1,-1.2518507E-1,7.629281E-1,-1.0462033E-1,1.0417876E0,1.0875258E-1,-6.760039E-1,1.3980145E-2,3.31631E-1,-1.2878335E-1,6.686742E-1,8.9145064E-1,-4.8490595E-2,-1.9407254E-1,4.0820846E-1,1.0770579E-1,-1.1205687E-1,2.4896848E-1,-8.226819E-1,-7.110692E-3,5.3368997E-2,7.725301E-1,-1.8124855E-1,-1.0612957E-1,1.0186684E-1,5.8423776E-2,9.254371E-2,3.473442E-2,4.8592865E-2,-6.867456E-3,-2.1204976E-2,4.4833228E-2,5.1552005E-2,-9.8917885E-3,1.2981373E-2,-3.891045E-2,9.026795E-2,1.1767152E-2,-1.02810346E-1,-3.895745E-2,5.287003E-2,-3.4935202E-2,1.06059864E-1,1.396361E-2,-1.1406499E-2,-3.8349282E-2,1.97968E-3,-1.3061012E-2],"categories":[],"categories_nodes":[],"categories_segments":[],"categories_sizes":[],"default_left":[0,0,0,0,0,0,0,0,0,0,0,0,0,0,0,0,0,0,0,0,0,0,0,0,0,0,0,0,0,0,0,0,0,0,0,0,0,0,0,0,0,0,0,0,0,0,0,0,0,0,0,0,0],"id":16,"left_children":[1,3,5,7,9,11,13,15,17,19,21,23,-1,25,27,29,31,33,35,37,-1,39,41,43,-1,45,47,49,51,-1,-1,-1,-1,-1,-1,-1,-1,-1,-1,-1,-1,-1,-1,-1,-1,-1,-1,-1,-1,-1,-1,-1,-1],"loss_changes":[6.014899E1,6.2700634E1,1.2279816E0,6.1179134E1,2.0869698E1,1.0959735E0,1.9184761E0,6.622696E-1,1.8681169E0,2.0551834E0,1.0139192E0,5.769441E-1,0E0,1.087249E0,1.3273201E0,1.2941513E0,4.357872E-1,2.5261662E0,1.7562394E0,4.5901644E-1,0E0,9.25557E-1,1.5922482E0,1.0389781E-1,0E0,1.4698123E0,4.8723793E-1,4.579461E0,2.4493628E0,0E0,0E0,0E0,0E0,0E0,0E0,0E0,0E0,0E0,0E0,0E0,0E0,0E0,0E0,0E0,0E0,0E0,0E0,0E0,0E0,0E0,0E0,0E0,0E0],"parents":[2147483647,0,0,1,1,2,2,3,3,4,4,5,5,6,6,7,7,8,8,9,9,10,10,11,11,13,13,14,14,15,15,16,16,17,17,18,18,19,19,21,21,22,22,23,23,25,25,26,26,27,27,28,28],"right_children":[2,4,6,8,10,12,14,16,18,20,22,24,-1,26,28,30,32,34,36,38,-1,40,42,44,-1,46,48,50,52,-1,-1,-1,-1,-1,-1,-1,-1,-1,-1,-1,-1,-1,-1,-1,-1,-1,-1,-1,-1,-1,-1,-1,-1],"split_conditions":[4.044E3,1.995E3,4.058E3,1.81E2,3.977E3,2.42E2,4.07E3,2E0,2E0,2.029E3,2E0,4E0,1.3980145E-2,2.23E2,4.636E3,1E0,1.77E2,2.19E2,3.09E2,2.61E2,1.0770579E-1,2.09E2,1E0,1.85E2,-7.110692E-3,1.59E2,2.59E2,4.501E3,4.852E3,1.0186684E-1,5.8423776E-2,9.254371E-2,3.473442E-2,4.8592865E-2,-6.867456E-3,-2.1204976E-2,4.4833228E-2,5.1552005E-2,-9.8917885E-3,1.2981373E-2,-3.891045E-2,9.026795E-2,1.1767152E-2,-1.02810346E-1,-3.895745E-2,5.287003E-2,-3.4935202E-2,1.06059864E-1,1.396361E-2,-1.1406499E-2,-3.8349282E-2,1.97968E-3,-1.3061012E-2],"split_indices":[3,3,3,4,3,4,3,2,2,3,0,0,0,4,3,2,4,4,4,4,0,4,1,4,0,4,4,3,3,0,0,0,0,0,0,0,0,0,0,0,0,0,0,0,0,0,0,0,0,0,0,0,0],"split_type":[0,0,0,0,0,0,0,0,0,0,0,0,0,0,0,0,0,0,0,0,0,0,0,0,0,0,0,0,0,0,0,0,0,0,0,0,0,0,0,0,0,0,0,0,0,0,0,0,0,0,0,0,0],"sum_hessian":[1.7653705E3,6.173097E2,1.1480608E3,4.758191E2,1.414906E2,7.9080553E0,1.1401527E3,1.028789E2,3.729402E2,1.1064341E2,3.0847185E1,6.1619244E0,1.7461311E0,8.198141E0,1.1319546E3,6.293058E1,3.9948322E1,2.3009908E2,1.4284113E2,6.497576E0,1.04145836E2,1.2058503E1,1.8788683E1,4.669586E0,1.4923382E0,5.713353E0,2.4847884E0,3.392545E2,7.9270013E2,1.00807905E1,5.284979E1,3.6940098E1,3.008222E0,7.534333E0,2.2256473E2,1.3960432E2,3.2368093E0,5.3491135E0,1.1484627E0,6.721701E0,5.3368015E0,2.1598694E0,1.6628813E1,2.2355075E0,2.434079E0,2.4769685E0,3.2363844E0,1.2431592E0,1.2416294E0,2.5583322E2,8.3421265E1,1.290527E2,6.636474E2],"tree_param":{"num_deleted":"0","num_feature":"5","num_nodes":"53","size_leaf_vector":"1"}},{"base_weights":[7.1880575E-3,2.4854796E-1,-1.1182607E-1,8.281347E-2,1.0207714E0,-1.4097001E-2,-1.2305597E-1,7.342566E-1,-8.5982226E-2,1.0672491E-1,2.3629178E-1,-7.002785E-2,2.0405947E-1,-5.46954E-1,-1.1923089E-1,4.8566306E-1,7.783958E-1,-3.736891E-2,-1.6354689E-1,-2.214821E-1,6.76997E-2,1.645687E-2,-6.0614765E-1,-1.7195986E-1,4.3737236E-1,-9.38152E-2,-2.2452125E-1,6.419908E-2,-1.21110156E-1,6.4586416E-2,-3.207713E-2,8.584134E-2,6.6662714E-2,5.269925E-2,-6.044237E-3,-1.7954988E-2,4.1332703E-2,2.5564311E-2,-5.7837464E-2,-2.265825E-3,9.420545E-2,-1.2362796E-1,-2.4488633E-2,-4.4902775E-2,7.885949E-2,8.357769E-2,-3.7710648E-2,4.2360213E-2,-5.484837E-2,-6.932645E-2,-1.1845656E-2],"categories":[],"categories_nodes":[],"categories_segments":[],"categories_sizes":[],"default_left":[0,0,0,0,0,0,0,0,0,0,0,0,0,0,0,0,0,0,0,0,0,0,0,0,0,0,0,0,0,0,0,0,0,0,0,0,0,0,0,0,0,0,0,0,0,0,0,0,0,0,0],"id":17,"left_children":[1,3,5,7,9,11,13,15,17,-1,19,21,23,25,27,29,31,33,35,37,-1,39,41,43,45,-1,47,-1,49,-1,-1,-1,-1,-1,-1,-1,-1,-1,-1,-1,-1,-1,-1,-1,-1,-1,-1,-1,-1,-1,-1],"loss_changes":[5.0282913E1,7.3901665E1,1.2849836E0,5.251782E1,3.468933E0,1.5024738E0,1.6396656E0,7.002754E-1,1.4258347E0,0E0,1.5606835E0,4.5455837E0,2.2811015E0,9.40259E-1,1.5702734E0,2.4650393E0,1.5929413E-1,3.0886214E0,1.4221854E0,8.6022455E-1,0E0,3.106249E0,2.796514E0,3.1074219E0,5.441704E0,0E0,1.5585736E0,0E0,1.4993095E0,0E0,0E0,0E0,0E0,0E0,0E0,0E0,0E0,0E0,0E0,0E0,0E0,0E0,0E0,0E0,0E0,0E0,0E0,0E0,0E0,0E0,0E0],"parents":[2147483647,0,0,1,1,2,2,3,3,4,4,5,5,6,6,7,7,8,8,10,10,11,11,12,12,13,13,14,14,15,15,16,16,17,17,18,18,19,19,21,21,22,22,23,23,24,24,26,26,28,28],"right_children":[2,4,6,8,10,12,14,16,18,-1,20,22,24,26,28,30,32,34,36,38,-1,40,42,44,46,-1,48,-1,50,-1,-1,-1,-1,-1,-1,-1,-1,-1,-1,-1,-1,-1,-1,-1,-1,-1,-1,-1,-1,-1,-1],"split_conditions":[4.006E3,2.029E3,1E0,1.81E2,3.977E3,5.614E3,1.04E2,1.155E3,2E0,1.0672491E-1,2E0,5.345E3,1.74E2,4.649E3,1.06E2,1.128E3,1.599E3,2.19E2,3.09E2,2.09E2,6.76997E-2,5.322E3,5.421E3,5.881E3,5.881E3,-9.38152E-2,5E3,6.419908E-2,1.09E2,6.4586416E-2,-3.207713E-2,8.584134E-2,6.6662714E-2,5.269925E-2,-6.044237E-3,-1.7954988E-2,4.1332703E-2,2.5564311E-2,-5.7837464E-2,-2.265825E-3,9.420545E-2,-1.2362796E-1,-2.4488633E-2,-4.4902775E-2,7.885949E-2,8.357769E-2,-3.7710648E-2,4.2360213E-2,-5.484837E-2,-6.932645E-2,-1.1845656E-2],"split_indices":[3,3,2,4,3,3,4,3,2,0,0,3,4,3,4,3,3,4,4,4,0,3,3,3,3,0,3,0,4,0,0,0,0,0,0,0,0,0,0,0,0,0,0,0,0,0,0,0,0,0,0],"split_type":[0,0,0,0,0,0,0,0,0,0,0,0,0,0,0,0,0,0,0,0,0,0,0,0,0,0,0,0,0,0,0,0,0,0,0,0,0,0,0,0,0,0,0,0,0,0,0,0,0,0,0],"sum_hessian":[1.7485109E3,5.7708923E2,1.1714216E3,4.760308E2,1.0105841E2,1.20965546E2,1.050456E3,9.727226E1,3.787585E2,9.506567E1,5.9927497E0,9.68215E1,2.4144047E1,8.124303E0,1.0423318E3,1.6476868E1,8.0795395E1,2.3374295E2,1.4501558E2,3.1834457E0,2.809304E0,8.420689E1,1.2614616E1,9.3454275E0,1.4798619E1,2.8079257E0,5.316377E0,1.7280843E0,1.0406038E3,1.391226E1,2.5646086E0,4.31926E1,3.7602795E1,8.323203E0,2.2541974E2,1.4177147E2,3.2441099E0,1.4836583E0,1.6997874E0,8.172861E1,2.4782746E0,3.7141213E0,8.900496E0,7.666571E0,1.6788565E0,9.92005E0,4.8785696E0,1.6692629E0,3.6471143E0,3.6024694E0,1.0370012E3],"tree_param":{"num_deleted":"0","num_feature":"5","num_nodes":"51","size_leaf_vector":"1"}},{"base_weights":[7.077804E-3,2.2463991E-1,-1.04630604E-1,7.147602E-2,7.9386765E-1,-4.5757505E-1,-1.0178724E-1,7.031446E-1,-8.52293E-2,1.0165565E0,1.063824E-1,-6.226107E-1,1.3758785E-2,3.2381544E-1,-1.0515488E-1,6.022367E-1,8.446386E-1,-1.1840263E-1,3.9827257E-2,3.8022608E-1,1.05832696E-1,-9.0513326E-2,2.3229119E-1,-7.612188E-1,-5.9713754E-3,-8.866116E-3,6.396261E-1,-1.5242963E-1,-8.478121E-2,9.8803155E-2,5.1252138E-2,9.63897E-2,5.8324385E-2,-5.2627888E-2,-1.0048308E-2,3.8711853E-2,-2.3366574E-2,6.5189555E-2,1.2603565E-2,-3.3280496E-2,1.2688152E-2,4.8156764E-2,-7.877546E-3,-2.490747E-2,-8.828189E-2,4.9941283E-2,-5.9709806E-2,7.784815E-2,1.3847527E-2,-9.139166E-3,-3.3713363E-2,-1.1767026E-2,4.9100275E-4],"categories":[],"categories_nodes":[],"categories_segments":[],"categories_sizes":[],"default_left":[0,0,0,0,0,0,0,0,0,0,0,0,0,0,0,0,0,0,0,0,0,0,0,0,0,0,0,0,0,0,0,0,0,0,0,0,0,0,0,0,0,0,0,0,0,0,0,0,0,0,0,0,0],"id":18,"left_children":[1,3,5,7,9,11,13,15,17,19,21,23,-1,25,27,29,31,33,35,37,-1,39,41,43,-1,45,47,49,51,-1,-1,-1,-1,-1,-1,-1,-1,-1,-1,-1,-1,-1,-1,-1,-1,-1,-1,-1,-1,-1,-1,-1,-1],"loss_changes":[4.216563E1,5.1259792E1,1.1038942E0,4.6078075E1,1.8982307E1,9.5745635E-1,1.6658688E0,8.1225204E-1,1.5537002E0,2.0979614E0,8.0506E-1,5.1082444E-1,0E0,9.704912E-1,1.075778E0,1.4833469E0,5.609417E-1,2.105834E0,7.5967255E0,4.2576957E-1,0E0,7.298814E-1,1.5554807E0,1.310978E-1,0E0,1.9301958E0,2.209791E-1,3.792995E0,2.3373666E0,0E0,0E0,0E0,0E0,0E0,0E0,0E0,0E0,0E0,0E0,0E0,0E0,0E0,0E0,0E0,0E0,0E0,0E0,0E0,0E0,0E0,0E0,0E0,0E0],"parents":[2147483647,0,0,1,1,2,2,3,3,4,4,5,5,6,6,7,7,8,8,9,9,10,10,11,11,13,13,14,14,15,15,16,16,17,17,18,18,19,19,21,21,22,22,23,23,25,25,26,26,27,27,28,28],"right_children":[2,4,6,8,10,12,14,16,18,20,22,24,-1,26,28,30,32,34,36,38,-1,40,42,44,-1,46,48,50,52,-1,-1,-1,-1,-1,-1,-1,-1,-1,-1,-1,-1,-1,-1,-1,-1,-1,-1,-1,-1,-1,-1,-1,-1],"split_conditions":[4.044E3,1.995E3,4.058E3,1.81E2,3.977E3,2.42E2,4.07E3,2E0,2.84E2,2.029E3,2E0,4E0,1.3758785E-2,2E2,4.636E3,1E0,4E0,1.038E3,2.95E2,2E0,1.05832696E-1,2E0,2E0,1E0,-5.9713754E-3,1.59E2,2.59E2,4.501E3,2.39E2,9.8803155E-2,5.1252138E-2,9.63897E-2,5.8324385E-2,-5.2627888E-2,-1.0048308E-2,3.8711853E-2,-2.3366574E-2,6.5189555E-2,1.2603565E-2,-3.3280496E-2,1.2688152E-2,4.8156764E-2,-7.877546E-3,-2.490747E-2,-8.828189E-2,4.9941283E-2,-5.9709806E-2,7.784815E-2,1.3847527E-2,-9.139166E-3,-3.3713363E-2,-1.1767026E-2,4.9100275E-4],"split_indices":[3,3,3,4,3,4,3,2,4,3,0,0,0,4,3,2,0,3,4,0,0,2,2,0,0,4,4,3,4,0,0,0,0,0,0,0,0,0,0,0,0,0,0,0,0,0,0,0,0,0,0,0,0],"split_type":[0,0,0,0,0,0,0,0,0,0,0,0,0,0,0,0,0,0,0,0,0,0,0,0,0,0,0,0,0,0,0,0,0,0,0,0,0,0,0,0,0,0,0,0,0,0,0,0,0,0,0,0,0],"sum_hessian":[1.732993E3,5.875928E2,1.1454003E3,4.638963E2,1.23696465E2,7.8756433E0,1.1375247E3,9.1515686E1,3.7238058E2,9.3070564E1,3.0625898E1,6.129771E0,1.745872E0,8.183133E0,1.1293416E3,5.6487396E1,3.502829E1,2.9435205E2,7.802856E1,6.355382E0,8.671519E1,1.2055176E1,1.8570723E1,4.6359005E0,1.4938709E0,4.4584427E0,3.724691E0,3.3817166E2,7.9116986E2,8.76841E0,4.7718987E1,2.2208431E1,1.2819859E1,1.1193854E1,2.8315817E2,3.419326E1,4.3835297E1,2.3157728E0,4.039609E0,5.450069E0,6.605107E0,1.0004997E1,8.565724E0,1.474413E0,3.161487E0,2.4727685E0,1.985674E0,2.4832592E0,1.2414317E0,2.552993E2,8.287237E1,5.7866583E2,2.1250406E2],"tree_param":{"num_deleted":"0","num_feature":"5","num_nodes":"53","size_leaf_vector":"1"}},{"base_weights":[6.9873417E-3,2.0859686E-1,-9.4361976E-2,7.069496E-2,7.879482E-1,-9.70234E-2,2.3102725E-1,6.7527646E-1,-6.9548704E-2,1.05016366E-1,9.6820906E-2,-9.2698805E-2,-3.6530173E-1,-1.3769706E-1,6.474952E-1,5.7456553E-1,8.198968E-1,-1.5479474E-1,-2.8941818E-2,5.070176E-2,5.951349E-2,-1.037231E-1,-1.3067353E-2,5.6245226E-2,-7.7453923E-1,3.5456307E-2,-4.8296884E-1,8.6197905E-2,3.0565206E-2,9.722061E-2,4.847392E-2,9.447736E-2,5.5468895E-2,4.9619596E-2,-1.72874E-2,-1.1721597E-4,-2.367155E-2,1.9244883E-2,-3.1210316E-2,-8.01451E-3,-1.9817684E-2,7.1398124E-2,-6.5923384E-3,-6.527491E-2,2.6415704E-2,-1.1682053E-1,-2.1083212E-2,-9.8535664E-2,2.105294E-2],"categories":[],"categories_nodes":[],"categories_segments":[],"categories_sizes":[],"default_left":[0,0,0,0,0,0,0,0,0,0,0,0,0,0,0,0,0,0,0,0,0,0,0,0,0,0,0,0,0,0,0,0,0,0,0,0,0,0,0,0,0,0,0,0,0,0,0,0,0],"id":19,"left_children":[1,3,5,7,9,11,13,15,17,-1,19,21,23,25,27,29,31,33,35,37,-1,39,41,43,45,-1,47,-1,-1,-1,-1,-1,-1,-1,-1,-1,-1,-1,-1,-1,-1,-1,-1,-1,-1,-1,-1,-1,-1],"loss_changes":[3.5155415E1,4.592776E1,1.0139818E0,3.955833E1,1.993457E1,1.2846012E0,1.5610421E0,8.082466E-1,1.3080161E0,0E0,6.9400704E-1,9.8163223E-1,3.0949955E0,1.1754754E0,7.9410076E-2,1.4975681E0,5.925522E-1,1.5229182E0,1.4886416E0,1.5995108E0,0E0,2.1742182E0,5.3237386E0,1.5942297E0,1.760416E0,0E0,1.5648603E0,0E0,0E0,0E0,0E0,0E0,0E0,0E0,0E0,0E0,0E0,0E0,0E0,0E0,0E0,0E0,0E0,0E0,0E0,0E0,0E0,0E0,0E0],"parents":[2147483647,0,0,1,1,2,2,3,3,4,4,5,5,6,6,7,7,8,8,10,10,11,11,12,12,13,13,14,14,15,15,16,16,17,17,18,18,19,19,21,21,22,22,23,23,24,24,26,26],"right_children":[2,4,6,8,10,12,14,16,18,-1,20,22,24,26,28,30,32,34,36,38,-1,40,42,44,46,-1,48,-1,-1,-1,-1,-1,-1,-1,-1,-1,-1,-1,-1,-1,-1,-1,-1,-1,-1,-1,-1,-1,-1],"split_conditions":[4.044E3,2.029E3,5.984E3,1.81E2,3.977E3,5.958E3,2E0,2E0,2E0,1.05016366E-1,2.68E2,5.718E3,2E0,1.94E2,4E0,1E0,4E0,2.06E2,2.95E2,2.36E2,5.951349E-2,5.375E3,5.731E3,1E0,4E0,3.5456307E-2,2.44E2,8.6197905E-2,3.0565206E-2,9.722061E-2,4.847392E-2,9.447736E-2,5.5468895E-2,4.9619596E-2,-1.72874E-2,-1.1721597E-4,-2.367155E-2,1.9244883E-2,-3.1210316E-2,-8.01451E-3,-1.9817684E-2,7.1398124E-2,-6.5923384E-3,-6.527491E-2,2.6415704E-2,-1.1682053E-1,-2.1083212E-2,-9.8535664E-2,2.105294E-2],"split_indices":[3,3,3,4,3,3,2,2,1,0,4,3,2,4,0,2,0,4,4,4,0,3,3,0,0,0,4,0,0,0,0,0,0,0,0,0,0,0,0,0,0,0,0,0,0,0,0,0,0],"split_type":[0,0,0,0,0,0,0,0,0,0,0,0,0,0,0,0,0,0,0,0,0,0,0,0,0,0,0,0,0,0,0,0,0,0,0,0,0,0,0,0,0,0,0,0,0,0,0,0,0],"sum_hessian":[1.7185592E3,5.745585E2,1.1440007E3,4.6499792E2,1.0956054E2,1.1354158E3,8.584956E0,8.6836464E1,3.7816147E2,7.904948E1,3.051106E1,1.1187277E3,1.668814E1,4.9085183E0,3.6764386E0,5.412073E1,3.2715733E1,1.2110781E2,2.5705365E2,2.8934875E1,1.5761867E0,9.824177E2,1.3630994E2,8.645329E0,8.042811E0,2.0124385E0,2.8960795E0,1.3240945E0,2.352344E0,8.162783E0,4.5957947E1,2.0500435E1,1.2215298E1,2.5579116E0,1.185499E2,2.276351E2,2.941856E1,2.114365E1,7.791224E0,7.8764935E2,1.9476837E2,8.390356E0,1.2791958E2,1.4752098E0,7.1701202E0,4.104243E0,3.938569E0,1.4353939E0,1.4606855E0],"tree_param":{"num_deleted":"0","num_feature":"5","num_nodes":"49","size_leaf_vector":"1"}},{"base_weights":[6.875103E-3,1.998105E-1,-8.214201E-2,6.530639E-2,9.840258E-1,5.610823E-3,-9.2251204E-2,6.464569E-1,-6.2618084E-2,1.0426468E-1,2.1219684E-1,6.3623875E-2,-1.1404131E-2,-4.9199158E-1,-8.869885E-2,9.8057546E-2,5.937516E-1,-9.204401E-2,5.0445702E-2,-3.9558705E-2,4.9391118E-1,-4.679615E-1,1.9747792E-2,-8.7452784E-2,-1.8677771E-1,1.9137844E-1,-9.368872E-2,4.7432315E-2,7.670912E-2,-4.7512952E-2,-7.566741E-3,3.550285E-2,-1.9029025E-2,7.782422E-2,1.1277273E-2,-7.233482E-2,3.5996594E-2,9.807978E-3,-1.4772333E-2,1.8577E-2,-7.500036E-2,-3.560393E-2,8.7490804E-2,-7.269558E-2,-9.021438E-3],"categories":[],"categories_nodes":[],"categories_segments":[],"categories_sizes":[],"default_left":[0,0,0,0,0,0,0,0,0,0,0,0,0,0,0,0,0,0,0,0,0,0,0,0,0,0,0,0,0,0,0,0,0,0,0,0,0,0,0,0,0,0,0,0,0],"id":20,"left_children":[1,3,5,7,9,11,13,15,17,-1,19,-1,21,23,25,-1,27,29,31,-1,33,35,37,-1,39,41,43,-1,-1,-1,-1,-1,-1,-1,-1,-1,-1,-1,-1,-1,-1,-1,-1,-1,-1],"loss_changes":[2.932279E1,5.679221E1,1.0369802E0,3.432622E1,3.3460922E0,1.3124077E0,1.444149E0,8.845024E-1,1.265215E0,0E0,1.3633019E0,0E0,1.7077284E0,8.884847E-1,1.4709854E0,0E0,1.1779442E0,1.8524075E0,5.8522153E0,0E0,4.655162E-1,1.8818009E0,1.4936213E0,0E0,1.4575558E0,7.244256E0,2.1834269E0,0E0,0E0,0E0,0E0,0E0,0E0,0E0,0E0,0E0,0E0,0E0,0E0,0E0,0E0,0E0,0E0,0E0,0E0],"parents":[2147483647,0,0,1,1,2,2,3,3,4,4,5,5,6,6,7,7,8,8,10,10,12,12,13,13,14,14,16,16,17,17,18,18,20,20,21,21,22,22,24,24,25,25,26,26],"right_children":[2,4,6,8,10,12,14,16,18,-1,20,-1,22,24,26,-1,28,30,32,-1,34,36,38,-1,40,42,44,-1,-1,-1,-1,-1,-1,-1,-1,-1,-1,-1,-1,-1,-1,-1,-1,-1,-1],"split_conditions":[4.006E3,2.029E3,1E0,1.81E2,3.977E3,1.1E2,1.04E2,1.3E2,2.84E2,1.0426468E-1,1E0,6.3623875E-2,1.39E2,4.649E3,1.23E2,9.8057546E-2,2E0,1.038E3,2.95E2,-3.9558705E-2,2.09E2,5.744E3,4E0,-8.7452784E-2,5.674E3,4E0,1.26E2,4.7432315E-2,7.670912E-2,-4.7512952E-2,-7.566741E-3,3.550285E-2,-1.9029025E-2,7.782422E-2,1.1277273E-2,-7.233482E-2,3.5996594E-2,9.807978E-3,-1.4772333E-2,1.8577E-2,-7.500036E-2,-3.560393E-2,8.7490804E-2,-7.269558E-2,-9.021438E-3],"split_indices":[3,3,2,4,3,4,4,4,4,0,0,0,4,3,4,0,2,3,4,0,4,3,0,0,3,0,4,0,0,0,0,0,0,0,0,0,0,0,0,0,0,0,0,0,0],"split_type":[0,0,0,0,0,0,0,0,0,0,0,0,0,0,0,0,0,0,0,0,0,0,0,0,0,0,0,0,0,0,0,0,0,0,0,0,0,0,0,0,0,0,0,0,0],"sum_hessian":[1.7053835E3,5.380251E2,1.1673585E3,4.6018082E2,7.78443E1,1.2063459E2,1.0467239E3,8.229011E1,3.7789072E2,7.202321E1,5.821091E0,2.2132077E0,1.1842138E2,8.008812E0,1.0387151E3,8.813455E0,7.3476654E1,2.9999902E2,7.789169E1,1.7155876E0,4.1055036E0,6.6684074E0,1.11752975E2,2.726407E0,5.2824054E0,1.7528046E1,1.021187E3,4.5715637E1,2.7761017E1,1.1150522E1,2.8884848E2,3.417641E1,4.3715282E1,1.7546432E0,2.3508604E0,5.1928954E0,1.4755119E0,7.642209E1,3.5330883E1,3.5827503E0,1.6996548E0,9.999151E0,7.5288944E0,4.4358387E0,1.0167512E3],"tree_param":{"num_deleted":"0","num_feature":"5","num_nodes":"45","size_leaf_vector":"1"}},{"base_weights":[6.6207075E-3,1.7969653E-1,-7.710766E-2,5.5102345E-2,7.2180134E-1,-4.1507164E-1,-7.441361E-2,6.160502E-1,-6.373957E-2,9.82601E-1,9.3015835E-2,-8.064354E-1,-1.1092795E-1,3.149324E-1,-7.751186E-2,3.351969E-1,6.6930914E-1,-1.8296389E-2,-1.3649145E-1,3.598084E-1,1.0356777E-1,-8.758343E-2,2.0956065E-1,-1.0777653E-2,-1.1059433E-1,2.8764714E-2,-4.0916723E-1,5.708023E-2,7.213162E-1,-1.219644E-1,-5.8396965E-2,5.192406E-2,-4.5817878E-2,7.680567E-2,5.362293E-2,-7.7149826E-3,1.2574188E-2,-2.5429674E-3,-2.5293708E-2,6.246134E-3,5.794699E-2,1.1378021E-2,-3.181707E-2,8.658394E-2,8.270382E-3,-9.133289E-2,1.3796865E-2,-2.8233802E-2,5.7543E-2,9.823967E-2,1.4022283E-2,-2.2523183E-2,-1.8878466E-3,5.344885E-3,-8.025109E-3],"categories":[],"categories_nodes":[],"categories_segments":[],"categories_sizes":[],"default_left":[0,0,0,0,0,0,0,0,0,0,0,0,0,0,0,0,0,0,0,0,0,0,0,0,0,0,0,0,0,0,0,0,0,0,0,0,0,0,0,0,0,0,0,0,0,0,0,0,0,0,0,0,0,0,0],"id":21,"left_children":[1,3,5,7,9,11,13,15,17,19,21,23,25,27,29,31,33,35,37,39,-1,41,43,-1,-1,-1,45,47,49,51,53,-1,-1,-1,-1,-1,-1,-1,-1,-1,-1,-1,-1,-1,-1,-1,-1,-1,-1,-1,-1,-1,-1,-1,-1],"loss_changes":[2.456599E1,3.7291065E1,1.0094085E0,3.0070784E1,1.683313E1,9.600848E-1,1.3932462E0,9.550686E-1,1.2294819E0,2.0353012E0,6.784502E-1,6.542764E-1,8.4531057E-1,9.182616E-1,9.501481E-1,2.3656683E0,4.4597244E-1,1.963888E0,1.8444474E0,4.3753648E-1,0E0,6.400849E-1,1.53983E0,0E0,0E0,0E0,1.2056742E0,1.3390757E0,3.8844192E-1,3.5923038E0,1.9346461E0,0E0,0E0,0E0,0E0,0E0,0E0,0E0,0E0,0E0,0E0,0E0,0E0,0E0,0E0,0E0,0E0,0E0,0E0,0E0,0E0,0E0,0E0,0E0,0E0],"parents":[2147483647,0,0,1,1,2,2,3,3,4,4,5,5,6,6,7,7,8,8,9,9,10,10,11,11,12,12,13,13,14,14,15,15,16,16,17,17,18,18,19,19,21,21,22,22,26,26,27,27,28,28,29,29,30,30],"right_children":[2,4,6,8,10,12,14,16,18,20,22,24,26,28,30,32,34,36,38,40,-1,42,44,-1,-1,-1,46,48,50,52,54,-1,-1,-1,-1,-1,-1,-1,-1,-1,-1,-1,-1,-1,-1,-1,-1,-1,-1,-1,-1,-1,-1,-1,-1],"split_conditions":[4.044E3,1.995E3,4.058E3,1.81E2,3.977E3,1.85E2,4.07E3,1.155E3,2E0,2.029E3,2E0,1.44E2,2.25E2,2.23E2,4.636E3,1.128E3,1.599E3,2.76E2,1.539E3,2.31E2,1.0356777E-1,2.09E2,1E0,-1.0777653E-2,-1.1059433E-1,2.8764714E-2,2.42E2,4E0,2.59E2,3E0,4.852E3,5.192406E-2,-4.5817878E-2,7.680567E-2,5.362293E-2,-7.7149826E-3,1.2574188E-2,-2.5429674E-3,-2.5293708E-2,6.246134E-3,5.794699E-2,1.1378021E-2,-3.181707E-2,8.658394E-2,8.270382E-3,-9.133289E-2,1.3796865E-2,-2.8233802E-2,5.7543E-2,9.823967E-2,1.4022283E-2,-2.2523183E-2,-1.8878466E-3,5.344885E-3,-8.025109E-3],"split_indices":[3,3,3,4,3,4,3,3,2,3,0,4,4,4,3,3,3,4,3,4,0,4,1,0,0,0,4,0,4,0,3,0,0,0,0,0,0,0,0,0,0,0,0,0,0,0,0,0,0,0,0,0,0,0,0],"split_type":[0,0,0,0,0,0,0,0,0,0,0,0,0,0,0,0,0,0,0,0,0,0,0,0,0,0,0,0,0,0,0,0,0,0,0,0,0,0,0,0,0,0,0,0,0,0,0,0,0,0,0,0,0,0,0],"sum_hessian":[1.6932605E3,5.516965E2,1.1415641E3,4.4949E2,1.022065E2,7.8173866E0,1.1337467E3,7.784913E1,3.7164087E2,7.1844894E1,3.0361607E1,2.6963294E0,5.1210575E0,8.156051E0,1.1255906E3,1.3572143E1,6.427699E1,2.2952414E2,1.4211671E2,6.2529407E0,6.559195E1,1.2005789E1,1.8355818E1,1.2170874E0,1.4792418E0,2.2070336E0,2.9140239E0,5.6876636E0,2.4683871E0,3.368501E2,7.887405E2,1.1297037E1,2.2751057E0,3.4158993E1,3.0117994E1,1.6327502E2,6.6249115E1,7.336353E1,6.875319E1,3.2023711E0,3.0505698E0,6.6794376E0,5.326351E0,2.029761E0,1.6326057E1,1.1682459E0,1.745778E0,3.7122052E0,1.9754586E0,1.2266589E0,1.2417282E0,1.6768498E2,1.691651E2,1.2868846E2,6.6005206E2],"tree_param":{"num_deleted":"0","num_feature":"5","num_nodes":"55","size_leaf_vector":"1"}},{"base_weights":[6.4374167E-3,1.6623858E-1,-6.95196E-2,5.0595663E-2,6.961067E-1,-3.9480573E-1,-6.693933E-2,5.868231E-1,-5.7461705E-2,9.703526E-1,8.65773E-2,-7.6292443E-1,-1.0831399E-1,2.0104003E-1,-7.1083136E-2,9.549824E-2,5.303686E-1,-4.7330353E-2,-3.82245E-1,3.3688432E-1,1.0291684E-1,4.2141408E-2,5.695191E-2,-1.0192768E-2,-1.0480224E-1,2.6737273E-2,-3.9073002E-1,6.334629E-1,-1.2186407E-1,-1.15226895E-1,-5.2596185E-2,4.047306E-2,7.184243E-2,-7.953967E-3,7.495738E-3,-1.109001E-2,-8.8938214E-2,4.4639323E-2,-1.3237921E-2,1.7008208E-2,-2.8173491E-2,-8.739485E-2,1.2924174E-2,-1.4084113E-2,1.1481285E-1,-1.2066882E-1,2.1669153E-2,-2.1711819E-2,-1.440511E-3,-8.22967E-3,2.8059068E-3],"categories":[],"categories_nodes":[],"categories_segments":[],"categories_sizes":[],"default_left":[0,0,0,0,0,0,0,0,0,0,0,0,0,0,0,0,0,0,0,0,0,0,0,0,0,0,0,0,0,0,0,0,0,0,0,0,0,0,0,0,0,0,0,0,0,0,0,0,0,0,0],"id":22,"left_children":[1,3,5,7,9,11,13,15,17,19,21,23,25,27,29,-1,31,33,35,37,-1,39,-1,-1,-1,-1,41,43,45,47,49,-1,-1,-1,-1,-1,-1,-1,-1,-1,-1,-1,-1,-1,-1,-1,-1,-1,-1,-1,-1],"loss_changes":[2.0439882E1,3.3208454E1,9.3164206E-1,2.5900368E1,1.6149857E1,8.4323645E-1,1.2732081E0,1.0514965E0,1.207462E0,2.1451454E0,6.4627874E-1,5.860543E-1,7.5193286E-1,2.5242012E0,9.056449E-1,0E0,1.2979736E0,1.4330978E0,1.4323483E0,4.2748684E-1,0E0,1.2778556E0,0E0,0E0,0E0,0E0,1.0903276E0,3.211573E0,4.2543106E0,3.3758225E0,1.892962E0,0E0,0E0,0E0,0E0,0E0,0E0,0E0,0E0,0E0,0E0,0E0,0E0,0E0,0E0,0E0,0E0,0E0,0E0,0E0,0E0],"parents":[2147483647,0,0,1,1,2,2,3,3,4,4,5,5,6,6,7,7,8,8,9,9,10,10,11,11,12,12,13,13,14,14,16,16,17,17,18,18,19,19,21,21,26,26,27,27,28,28,29,29,30,30],"right_children":[2,4,6,8,10,12,14,16,18,20,22,24,26,28,30,-1,32,34,36,38,-1,40,-1,-1,-1,-1,42,44,46,48,50,-1,-1,-1,-1,-1,-1,-1,-1,-1,-1,-1,-1,-1,-1,-1,-1,-1,-1,-1,-1],"split_conditions":[4.044E3,1.995E3,4.058E3,1.81E2,3.977E3,1.85E2,4.082E3,1.3E2,1.962E3,2.029E3,2.68E2,1.44E2,2.25E2,1.84E2,4.636E3,9.549824E-2,2E0,2.84E2,4E0,2.61E2,1.0291684E-1,2.36E2,5.695191E-2,-1.0192768E-2,-1.0480224E-1,2.6737273E-2,2.42E2,2E0,2.07E2,3E0,2.39E2,4.047306E-2,7.184243E-2,-7.953967E-3,7.495738E-3,-1.109001E-2,-8.8938214E-2,4.4639323E-2,-1.3237921E-2,1.7008208E-2,-2.8173491E-2,-8.739485E-2,1.2924174E-2,-1.4084113E-2,1.1481285E-1,-1.2066882E-1,2.1669153E-2,-2.1711819E-2,-1.440511E-3,-8.22967E-3,2.8059068E-3],"split_indices":[3,3,3,4,3,4,3,4,3,3,4,4,4,4,3,0,2,4,0,4,0,4,0,0,0,0,4,2,4,0,4,0,0,0,0,0,0,0,0,0,0,0,0,0,0,0,0,0,0,0,0],"split_type":[0,0,0,0,0,0,0,0,0,0,0,0,0,0,0,0,0,0,0,0,0,0,0,0,0,0,0,0,0,0,0,0,0,0,0,0,0,0,0,0,0,0,0,0,0,0,0,0,0,0,0],"sum_hessian":[1.6820032E3,5.415281E2,1.1404751E3,4.4541287E2,9.61152E1,7.779119E0,1.132696E3,7.3960106E1,3.7145276E2,6.588124E1,3.0233952E1,2.6767378E0,5.102381E0,1.6524782E1,1.1161713E3,7.7172537E0,6.624285E1,3.6132718E2,1.0125582E1,6.1687927E0,5.971245E1,2.8682142E1,1.5518092E0,1.2156901E0,1.4610476E0,2.2124774E0,2.8899035E0,6.653226E0,9.871555E0,3.2792E2,7.882512E2,4.1601505E1,2.464135E1,2.862749E2,7.505226E1,7.390146E0,2.7354357E0,5.0411177E0,1.1276753E0,2.0900633E1,7.78151E0,1.1450386E0,1.744865E0,2.9465482E0,3.7066777E0,1.7380731E0,8.133483E0,1.6252124E2,1.6539876E2,5.76091E2,2.1216026E2],"tree_param":{"num_deleted":"0","num_feature":"5","num_nodes":"51","size_leaf_vector":"1"}},{"base_weights":[6.1179455E-3,1.5346631E-1,-6.2806234E-2,4.6402074E-2,6.694426E-1,-4.0342963E-1,-6.0496587E-2,5.584462E-1,-5.2007444E-2,9.580743E-1,7.957558E-2,1.7470337E-1,-9.246658E-2,1.09490834E-1,-6.5328516E-2,9.3942165E-2,5.0176847E-1,-1.3103846E-1,-1.4285595E-2,3.1282514E-1,1.02304E-1,-8.934651E-2,1.896988E-1,4.491118E-2,-2.2618825E-2,-2.4709228E-1,6.098207E-1,-6.827363E-2,3.190535E-1,3.891639E-2,7.2854236E-2,-9.762269E-3,-4.6900414E-2,1.1645172E-3,-2.049719E-2,2.4695978E-3,5.3457953E-2,-3.1568844E-2,1.1307147E-2,8.363862E-2,6.8918527E-3,3.9742835E-2,-6.516814E-2,1.0142447E-1,3.0663381E-3,-6.28132E-3,-4.152366E-2,7.54199E-2,-1.7293563E-2],"categories":[],"categories_nodes":[],"categories_segments":[],"categories_sizes":[],"default_left":[0,0,0,0,0,0,0,0,0,0,0,0,0,0,0,0,0,0,0,0,0,0,0,0,0,0,0,0,0,0,0,0,0,0,0,0,0,0,0,0,0,0,0,0,0,0,0,0,0],"id":23,"left_children":[1,3,5,7,9,11,13,15,17,19,21,23,-1,25,27,-1,29,31,33,35,-1,37,39,-1,-1,41,43,45,47,-1,-1,-1,-1,-1,-1,-1,-1,-1,-1,-1,-1,-1,-1,-1,-1,-1,-1,-1,-1],"loss_changes":[1.6997162E1,2.9433094E1,8.727064E-1,2.234076E1,1.5515446E1,2.422714E0,9.384341E-1,1.0717525E0,1.1080744E0,2.253788E0,5.969463E-1,5.8547944E-1,0E0,5.8083787E0,1.2705555E0,0E0,1.3598595E0,1.311337E0,1.2541043E0,4.376915E-1,0E0,6.305816E-1,1.4415882E0,0E0,0E0,5.2728586E0,3.1273031E0,2.049499E0,1.9638591E0,0E0,0E0,0E0,0E0,0E0,0E0,0E0,0E0,0E0,0E0,0E0,0E0,0E0,0E0,0E0,0E0,0E0,0E0,0E0,0E0],"parents":[2147483647,0,0,1,1,2,2,3,3,4,4,5,5,6,6,7,7,8,8,9,9,10,10,11,11,13,13,14,14,16,16,17,17,18,18,19,19,21,21,22,22,25,25,26,26,27,27,28,28],"right_children":[2,4,6,8,10,12,14,16,18,20,22,24,-1,26,28,-1,30,32,34,36,-1,38,40,-1,-1,42,44,46,48,-1,-1,-1,-1,-1,-1,-1,-1,-1,-1,-1,-1,-1,-1,-1,-1,-1,-1,-1,-1],"split_conditions":[4.044E3,1.995E3,1.02E2,1.81E2,3.977E3,9.9E1,1.3E2,1.3E2,2E0,2.029E3,2E0,4E0,-9.246658E-2,4E0,5.984E3,9.3942165E-2,1.65E2,1.91E3,2.95E2,2.31E2,1.02304E-1,2E0,1E0,4.491118E-2,-2.2618825E-2,2E0,2E0,5.958E3,1.94E2,3.891639E-2,7.2854236E-2,-9.762269E-3,-4.6900414E-2,1.1645172E-3,-2.049719E-2,2.4695978E-3,5.3457953E-2,-3.1568844E-2,1.1307147E-2,8.363862E-2,6.8918527E-3,3.9742835E-2,-6.516814E-2,1.0142447E-1,3.0663381E-3,-6.28132E-3,-4.152366E-2,7.54199E-2,-1.7293563E-2],"split_indices":[3,3,4,4,3,4,4,4,1,3,0,0,0,0,3,0,4,3,4,4,0,2,1,0,0,1,2,3,4,0,0,0,0,0,0,0,0,0,0,0,0,0,0,0,0,0,0,0,0],"split_type":[0,0,0,0,0,0,0,0,0,0,0,0,0,0,0,0,0,0,0,0,0,0,0,0,0,0,0,0,0,0,0,0,0,0,0,0,0,0,0,0,0,0,0,0,0,0,0,0,0],"sum_hessian":[1.671681E3,5.323593E2,1.1393218E3,4.417805E2,9.05788E1,6.503628E0,1.1328181E3,7.046459E1,3.713159E2,6.0399906E1,3.017889E1,3.3987296E0,3.1048982E0,3.0711914E1,1.1021062E3,7.108435E0,6.335616E1,1.1916972E2,2.5214618E2,6.05691E0,5.4343E1,1.1984339E1,1.8194553E1,1.946249E0,1.4524806E0,1.8227434E1,1.2484479E1,1.0945422E3,7.56396E0,4.4149704E1,1.9206451E1,1.0962009E2,9.549637E0,2.2278883E2,2.935735E1,3.117568E0,2.939342E0,5.3936367E0,6.5907016E0,1.9309441E0,1.6263609E1,7.036235E0,1.1191199E1,6.908824E0,5.575655E0,1.0787461E3,1.5796068E1,3.7310393E0,3.8329206E0],"tree_param":{"num_deleted":"0","num_feature":"5","num_nodes":"49","size_leaf_vector":"1"}},{"base_weights":[5.9720473E-3,1.4662668E-1,-5.452946E-2,4.661304E-2,9.3818295E-1,2.5329867E-2,-6.3764326E-2,4.952736E-1,-5.007453E-2,1.01722114E-1,1.9727345E-1,-2.6111148E-2,2.2463387E-1,-3.594048E-1,-5.9302293E-2,9.300131E-2,4.4396323E-1,-2.2281912E-1,-2.5545154E-2,-1.9741075E-1,6.042349E-1,5.167167E-2,-5.152964E-1,-1.1723156E-1,4.3270227E-1,-6.7387325E-1,2.5950579E-2,4.1342372E-1,-6.479207E-2,9.093945E-2,3.8986098E-2,-5.8735233E-2,-3.9248443E-3,1.2355357E-2,-7.5418386E-3,2.0981675E-2,-4.952305E-2,7.065064E-2,1.900286E-2,1.5092398E-3,9.0270594E-2,-1.1184626E-1,-1.7856006E-2,1.7139768E-2,-1.0910676E-1,7.9624884E-2,-3.1964913E-2,-2.129415E-2,-1.2424403E-1,-6.234314E-2,5.4084074E-2,-1.2877883E-2,1.0367153E-1,-6.707082E-2,-6.151197E-3],"categories":[],"categories_nodes":[],"categories_segments":[],"categories_sizes":[],"default_left":[0,0,0,0,0,0,0,0,0,0,0,0,0,0,0,0,0,0,0,0,0,0,0,0,0,0,0,0,0,0,0,0,0,0,0,0,0,0,0,0,0,0,0,0,0,0,0,0,0,0,0,0,0,0,0],"id":24,"left_children":[1,3,5,7,9,11,13,15,17,-1,19,21,23,25,27,-1,29,31,33,35,37,39,41,43,45,47,49,51,53,-1,-1,-1,-1,-1,-1,-1,-1,-1,-1,-1,-1,-1,-1,-1,-1,-1,-1,-1,-1,-1,-1,-1,-1,-1,-1],"loss_changes":[1.4161047E1,3.9578514E1,8.5979676E-1,1.9346273E1,3.084053E0,1.2498047E0,1.3549905E0,1.3506546E0,1.550853E0,0E0,1.1870102E0,3.730277E0,1.8286998E0,1.873374E0,2.6972175E0,0E0,1.4742689E0,3.0248065E0,2.4096386E0,6.0460055E-1,1.4817715E-2,2.629056E0,2.531019E0,3.066354E0,4.5628314E0,1.95521E0,2.9601364E0,4.17139E0,1.9820938E0,0E0,0E0,0E0,0E0,0E0,0E0,0E0,0E0,0E0,0E0,0E0,0E0,0E0,0E0,0E0,0E0,0E0,0E0,0E0,0E0,0E0,0E0,0E0,0E0,0E0,0E0],"parents":[2147483647,0,0,1,1,2,2,3,3,4,4,5,5,6,6,7,7,8,8,10,10,11,11,12,12,13,13,14,14,16,16,17,17,18,18,19,19,20,20,21,21,22,22,23,23,24,24,25,25,26,26,27,27,28,28],"right_children":[2,4,6,8,10,12,14,16,18,-1,20,22,24,26,28,-1,30,32,34,36,38,40,42,44,46,48,50,52,54,-1,-1,-1,-1,-1,-1,-1,-1,-1,-1,-1,-1,-1,-1,-1,-1,-1,-1,-1,-1,-1,-1,-1,-1,-1,-1],"split_conditions":[4.006E3,2.029E3,1E0,2.15E2,3.977E3,5.614E3,1.1E2,1E0,2.33E2,1.01722114E-1,2E0,5.345E3,1.74E2,4E0,1.23E2,9.300131E-2,1.3E2,1.347E3,2.51E2,2.09E2,2.31E2,5.322E3,5.421E3,1.68E2,5.881E3,5.216E3,4.623E3,5.095E3,1.26E2,9.093945E-2,3.8986098E-2,-5.8735233E-2,-3.9248443E-3,1.2355357E-2,-7.5418386E-3,2.0981675E-2,-4.952305E-2,7.065064E-2,1.900286E-2,1.5092398E-3,9.0270594E-2,-1.1184626E-1,-1.7856006E-2,1.7139768E-2,-1.0910676E-1,7.9624884E-2,-3.1964913E-2,-2.129415E-2,-1.2424403E-1,-6.234314E-2,5.4084074E-2,-1.2877883E-2,1.0367153E-1,-6.707082E-2,-6.151197E-3],"split_indices":[3,3,2,4,3,3,4,2,4,0,0,3,4,0,4,0,4,3,4,4,4,3,3,4,3,3,3,3,4,0,0,0,0,0,0,0,0,0,0,0,0,0,0,0,0,0,0,0,0,0,0,0,0,0,0],"split_type":[0,0,0,0,0,0,0,0,0,0,0,0,0,0,0,0,0,0,0,0,0,0,0,0,0,0,0,0,0,0,0,0,0,0,0,0,0,0,0,0,0,0,0,0,0,0,0,0,0,0,0,0,0,0,0],"sum_hessian":[1.662144E3,4.9949304E2,1.162651E3,4.4440152E2,5.5091526E1,1.2033151E2,1.0423195E3,7.805934E1,3.6634216E2,4.944404E1,5.6474876E0,9.633589E1,2.399562E1,1.43148575E1,1.0280046E3,6.432568E0,7.162678E1,4.4546448E1,3.2179572E2,3.1283903E0,2.5190973E0,8.389117E1,1.2444729E1,9.243961E0,1.4751659E1,7.470151E0,6.844707E0,1.0948155E1,1.0170565E3,5.8126717E0,6.58141E1,1.4182786E1,3.0363663E1,8.028926E1,2.4150645E2,1.4462854E0,1.6821051E0,1.4543238E0,1.0647737E0,8.140974E1,2.4814303E0,3.6268299E0,8.817899E0,7.7661867E0,1.4777746E0,9.906403E0,4.845257E0,4.8846974E0,2.5854535E0,2.933791E0,3.9109159E0,6.27923E0,4.668925E0,4.3805532E0,1.01267596E3],"tree_param":{"num_deleted":"0","num_feature":"5","num_nodes":"55","size_leaf_vector":"1"}},{"base_weights":[5.648008E-3,1.3114688E-1,-5.1392145E-2,4.2794473E-2,6.438581E-1,-3.6463436E-1,-4.8931055E-2,5.061059E-1,-3.7979413E-2,1.0116469E-1,7.73599E-2,-6.8945415E-2,-5.839704E-2,1.9266279E-1,-5.2678194E-2,1.9662915E-1,5.683603E-1,4.226224E-2,-6.844447E-2,3.4965336E-2,5.413897E-2,-4.6397217E-2,1.5861982E-1,5.9547323E-1,-1.08531006E-1,-9.231116E-2,-3.61086E-2,4.0256802E-2,-5.704369E-2,6.823109E-2,4.221701E-2,-1.9059572E-4,7.157557E-2,-2.5880918E-2,-6.270131E-4,1.5301242E-2,-2.615807E-2,5.214837E-2,-2.0449433E-2,-1.217414E-2,1.0708046E-1,-1.13100104E-1,2.0772228E-2,-6.2915334E-3,-4.368302E-2,6.5287775E-3,-5.5991933E-3],"categories":[],"categories_nodes":[],"categories_segments":[],"categories_sizes":[],"default_left":[0,0,0,0,0,0,0,0,0,0,0,0,0,0,0,0,0,0,0,0,0,0,0,0,0,0,0,0,0,0,0,0,0,0,0,0,0,0,0,0,0,0,0,0,0,0,0],"id":25,"left_children":[1,3,5,7,9,11,13,15,17,-1,19,-1,21,23,25,27,29,31,33,35,-1,-1,37,39,41,43,45,-1,-1,-1,-1,-1,-1,-1,-1,-1,-1,-1,-1,-1,-1,-1,-1,-1,-1,-1,-1],"loss_changes":[1.1850307E1,2.3404734E1,8.5961986E-1,1.6572077E1,1.5749207E1,8.2693195E-1,1.0335627E0,1.1547089E0,9.259062E-1,0E0,5.906577E-1,0E0,5.647179E-1,2.1854742E0,7.2823644E-1,2.2101955E0,6.1478806E-1,3.1106002E0,3.2420354E0,1.0713849E0,0E0,0E0,6.8377084E-1,2.732557E0,3.7426934E0,3.292162E0,1.5907643E0,0E0,0E0,0E0,0E0,0E0,0E0,0E0,0E0,0E0,0E0,0E0,0E0,0E0,0E0,0E0,0E0,0E0,0E0,0E0,0E0],"parents":[2147483647,0,0,1,1,2,2,3,3,4,4,5,5,6,6,7,7,8,8,10,10,12,12,13,13,14,14,15,15,16,16,17,17,18,18,19,19,22,22,23,23,24,24,25,25,26,26],"right_children":[2,4,6,8,10,12,14,16,18,-1,20,-1,22,24,26,28,30,32,34,36,-1,-1,38,40,42,44,46,-1,-1,-1,-1,-1,-1,-1,-1,-1,-1,-1,-1,-1,-1,-1,-1,-1,-1,-1,-1],"split_conditions":[4.044E3,2.029E3,4.058E3,1.81E2,3.977E3,2E0,4.082E3,1.155E3,1.27E3,1.0116469E-1,2.68E2,-6.8945415E-2,1.73E2,1.84E2,4.636E3,1.128E3,1.599E3,1.255E3,1.462E3,2.36E2,5.413897E-2,-4.6397217E-2,2.25E2,2E0,2.07E2,4.596E3,4.852E3,4.0256802E-2,-5.704369E-2,6.823109E-2,4.221701E-2,-1.9059572E-4,7.157557E-2,-2.5880918E-2,-6.270131E-4,1.5301242E-2,-2.615807E-2,5.214837E-2,-2.0449433E-2,-1.217414E-2,1.0708046E-1,-1.13100104E-1,2.0772228E-2,-6.2915334E-3,-4.368302E-2,6.5287775E-3,-5.5991933E-3],"split_indices":[3,3,3,4,3,1,3,3,3,0,4,0,4,4,3,3,3,3,3,4,0,0,4,2,4,3,3,0,0,0,0,0,0,0,0,0,0,0,0,0,0,0,0,0,0,0,0],"split_type":[0,0,0,0,0,0,0,0,0,0,0,0,0,0,0,0,0,0,0,0,0,0,0,0,0,0,0,0,0,0,0,0,0,0,0,0,0,0,0,0,0,0,0,0,0,0,0],"sum_hessian":[1.6534822E3,5.162774E2,1.1372047E3,4.4131223E2,7.496517E1,7.717977E0,1.1294868E3,6.473465E1,3.7657758E2,4.4978138E1,2.9987038E1,3.1380928E0,4.579884E0,1.6480848E1,1.1130059E3,1.1537644E1,5.3197002E1,1.0352272E2,2.7305484E2,2.8462048E1,1.5249904E0,1.1997533E0,3.3801308E0,6.632985E0,9.847863E0,3.2678784E2,7.862181E2,9.470284E0,2.06736E0,2.7834013E1,2.5362988E1,9.808726E1,5.4354653E0,6.644664E1,2.066082E2,2.0704254E1,7.7577934E0,1.4725018E0,1.907629E0,2.9403107E0,3.6926744E0,1.7178094E0,8.130054E0,3.021866E2,2.4601223E1,1.28523E2,6.5769507E2],"tree_param":{"num_deleted":"0","num_feature":"5","num_nodes":"47","size_leaf_vector":"1"}},{"base_weights":[5.3734924E-3,1.2077452E-1,-4.6412144E-2,3.5320073E-2,5.956719E-1,-3.39155E-1,-4.412003E-2,4.7635365E-1,-3.9242722E-2,9.22441E-1,7.1189225E-2,-6.410252E-2,-5.5357955E-2,2.6515153E-1,-4.6574716E-2,3.539546E-1,6.6875094E-1,-2.9746378E-2,-3.4527087E-1,2.8112623E-1,1.00625746E-1,-1.13723185E-2,2.984633E-1,-4.410206E-2,1.4985181E-1,1.6164852E-2,6.661793E-1,-5.474261E-2,3.3508144E-2,8.9410946E-2,2.4449503E-2,8.493184E-2,3.1791143E-2,-6.1155576E-3,8.9170495E-3,2.987665E-2,-5.1058244E-2,5.6403168E-2,4.129462E-3,1.3875443E-2,-1.0914465E-1,6.046107E-2,-1.7612463E-2,4.890975E-2,-1.9132616E-2,-2.8175263E-2,4.8707154E-2,9.224179E-2,1.1611736E-2,-2.980753E-3,-1.0790217E-2,-1.1461831E-2,2.623826E-2],"categories":[],"categories_nodes":[],"categories_segments":[],"categories_sizes":[],"default_left":[0,0,0,0,0,0,0,0,0,0,0,0,0,0,0,0,0,0,0,0,0,0,0,0,0,0,0,0,0,0,0,0,0,0,0,0,0,0,0,0,0,0,0,0,0,0,0,0,0,0,0,0,0],"id":26,"left_children":[1,3,5,7,9,11,13,15,17,19,21,-1,23,25,27,29,31,33,35,37,-1,39,41,-1,43,45,47,49,51,-1,-1,-1,-1,-1,-1,-1,-1,-1,-1,-1,-1,-1,-1,-1,-1,-1,-1,-1,-1,-1,-1,-1,-1],"loss_changes":[9.845742E0,2.0688028E1,7.4814963E-1,1.4275595E1,1.3260962E1,7.0863557E-1,8.69895E-1,1.2415409E0,1.0701468E0,2.2878838E0,5.8381885E-1,0E0,5.07026E-1,8.9231694E-1,7.3544693E-1,2.1753592E0,1.2049656E0,1.356338E0,1.3337809E0,4.4594145E-1,0E0,3.9867964E0,1.3094196E0,0E0,6.008689E-1,1.0638314E0,3.7768674E-1,1.3463447E0,3.5702615E0,0E0,0E0,0E0,0E0,0E0,0E0,0E0,0E0,0E0,0E0,0E0,0E0,0E0,0E0,0E0,0E0,0E0,0E0,0E0,0E0,0E0,0E0,0E0,0E0],"parents":[2147483647,0,0,1,1,2,2,3,3,4,4,5,5,6,6,7,7,8,8,9,9,10,10,12,12,13,13,14,14,15,15,16,16,17,17,18,18,19,19,21,21,22,22,24,24,25,25,26,26,27,27,28,28],"right_children":[2,4,6,8,10,12,14,16,18,20,22,-1,24,26,28,30,32,34,36,38,-1,40,42,-1,44,46,48,50,52,-1,-1,-1,-1,-1,-1,-1,-1,-1,-1,-1,-1,-1,-1,-1,-1,-1,-1,-1,-1,-1,-1,-1,-1],"split_conditions":[4.044E3,1.995E3,4.058E3,1.81E2,3.977E3,2E0,4.07E3,2E0,1.962E3,2.029E3,2.46E2,-6.410252E-2,1.73E2,2.23E2,2.64E2,1E0,4E0,2.84E2,2.3E2,2E0,1.00625746E-1,2.36E2,4E0,-4.410206E-2,2.25E2,4E0,2.59E2,5.375E3,5.216E3,8.9410946E-2,2.4449503E-2,8.493184E-2,3.1791143E-2,-6.1155576E-3,8.9170495E-3,2.987665E-2,-5.1058244E-2,5.6403168E-2,4.129462E-3,1.3875443E-2,-1.0914465E-1,6.046107E-2,-1.7612463E-2,4.890975E-2,-1.9132616E-2,-2.8175263E-2,4.8707154E-2,9.224179E-2,1.1611736E-2,-2.980753E-3,-1.0790217E-2,-1.1461831E-2,2.623826E-2],"split_indices":[3,3,3,4,3,1,3,2,3,3,4,0,4,4,4,2,0,4,4,0,0,4,0,0,4,0,4,3,3,0,0,0,0,0,0,0,0,0,0,0,0,0,0,0,0,0,0,0,0,0,0,0,0],"split_type":[0,0,0,0,0,0,0,0,0,0,0,0,0,0,0,0,0,0,0,0,0,0,0,0,0,0,0,0,0,0,0,0,0,0,0,0,0,0,0,0,0,0,0,0,0,0,0,0,0,0,0,0,0],"sum_hessian":[1.6455773E3,5.0930066E2,1.1362766E3,4.325421E2,7.6758545E1,7.6859183E0,1.1285907E3,6.1772655E1,3.7076944E2,4.6825825E1,2.9932718E1,3.1144185E0,4.5715003E0,8.044371E0,1.1205464E3,3.94898E1,2.2282858E1,3.606746E2,1.0094873E1,5.9157734E0,4.091005E1,2.265341E1,7.2793097E0,1.188591E0,3.382909E0,5.6048117E0,2.4395587E0,1.0171233E3,1.03423035E2,5.446133E0,3.4043663E1,1.3773303E1,8.509556E0,2.856993E2,7.497527E1,1.8970115E0,8.197862E0,2.093958E0,3.8218155E0,2.065409E1,1.9993178E0,4.258357E0,3.0209525E0,1.4788648E0,1.9040443E0,3.6789913E0,1.9258204E0,1.2024704E0,1.2370884E0,6.9342523E2,3.2369806E2,6.3090424E1,4.033261E1],"tree_param":{"num_deleted":"0","num_feature":"5","num_nodes":"53","size_leaf_vector":"1"}},{"base_weights":[5.2414783E-3,1.1528093E-1,-4.0226296E-2,3.634738E-2,9.014357E-1,-3.529952E-1,-3.820257E-2,4.1840798E-1,-3.7680756E-2,1.0009968E-1,1.7885086E-1,1.77239E-1,-8.5219616E-1,2.1089152E-2,-4.9536176E-2,8.942927E-2,3.6423865E-1,-1.7903125E-1,-1.1424113E-2,-1.9921543E-1,5.803998E-1,4.4513516E-2,-2.186262E-2,-9.727114E-2,-2.7214736E-2,-2.03707E-1,9.2230424E-2,-5.326247E-2,3.5658327E-1,8.746775E-2,3.1073678E-2,4.634477E-2,-2.51274E-2,1.7555999E-2,-5.973913E-3,1.8160058E-2,-4.7116082E-2,6.762876E-2,1.8834954E-2,-7.850028E-2,-1.1334314E-2,-2.1626376E-2,1.6022928E-2,3.2607853E-2,-5.8825086E-3,6.512981E-2,-6.469097E-3],"categories":[],"categories_nodes":[],"categories_segments":[],"categories_sizes":[],"default_left":[0,0,0,0,0,0,0,0,0,0,0,0,0,0,0,0,0,0,0,0,0,0,0,0,0,0,0,0,0,0,0,0,0,0,0,0,0,0,0,0,0,0,0,0,0,0,0],"id":27,"left_children":[1,3,5,7,9,11,13,15,17,-1,19,21,23,25,27,-1,29,31,33,35,37,-1,-1,-1,-1,39,41,43,45,-1,-1,-1,-1,-1,-1,-1,-1,-1,-1,-1,-1,-1,-1,-1,-1,-1,-1],"loss_changes":[8.207132E0,2.9728474E1,7.212733E-1,1.2372253E1,2.9661407E0,2.0942502E0,7.768495E-1,1.5043631E0,1.3596272E0,0E0,1.1041973E0,5.6265295E-1,1.1647463E-2,2.992846E0,1.4861887E0,0E0,1.5149384E0,2.780983E0,2.8154333E0,5.1000315E-1,9.3972683E-4,0E0,0E0,0E0,0E0,2.2756903E0,3.0123978E0,2.0482314E0,1.1526803E0,0E0,0E0,0E0,0E0,0E0,0E0,0E0,0E0,0E0,0E0,0E0,0E0,0E0,0E0,0E0,0E0,0E0,0E0],"parents":[2147483647,0,0,1,1,2,2,3,3,4,4,5,5,6,6,7,7,8,8,10,10,11,11,12,12,13,13,14,14,16,16,17,17,18,18,19,19,20,20,25,25,26,26,27,27,28,28],"right_children":[2,4,6,8,10,12,14,16,18,-1,20,22,24,26,28,-1,30,32,34,36,38,-1,-1,-1,-1,40,42,44,46,-1,-1,-1,-1,-1,-1,-1,-1,-1,-1,-1,-1,-1,-1,-1,-1,-1,-1],"split_conditions":[4.006E3,2.029E3,1.02E2,2.15E2,3.977E3,9.9E1,1E0,1.3E2,2.37E2,1.0009968E-1,2E0,4E0,5.178E3,1.65E2,5.984E3,8.942927E-2,1E0,1.067E3,2.5E2,2.09E2,2.31E2,4.4513516E-2,-2.186262E-2,-9.727114E-2,-2.7214736E-2,1E0,1E0,1.15E2,1.94E2,8.746775E-2,3.1073678E-2,4.634477E-2,-2.51274E-2,1.7555999E-2,-5.973913E-3,1.8160058E-2,-4.7116082E-2,6.762876E-2,1.8834954E-2,-7.850028E-2,-1.1334314E-2,-2.1626376E-2,1.6022928E-2,3.2607853E-2,-5.8825086E-3,6.512981E-2,-6.469097E-3],"split_indices":[3,3,4,4,3,4,1,4,4,0,0,0,3,4,3,0,2,3,4,4,4,0,0,0,0,2,0,4,4,0,0,0,0,0,0,0,0,0,0,0,0,0,0,0,0,0,0],"split_type":[0,0,0,0,0,0,0,0,0,0,0,0,0,0,0,0,0,0,0,0,0,0,0,0,0,0,0,0,0,0,0,0,0,0,0,0,0,0,0,0,0,0,0,0,0,0,0],"sum_hessian":[1.6384337E3,4.7860233E2,1.1598314E3,4.3588382E2,4.2718506E1,6.341353E0,1.15349E3,6.999359E1,3.6589023E2,3.7206688E1,5.5118165E0,3.3878496E0,2.9535034E0,1.8496832E2,9.6852167E2,5.5680785E0,6.442551E1,5.6407356E1,3.0948288E2,3.0984483E0,2.4133682E0,1.9462745E0,1.441575E0,1.8849294E0,1.068574E0,4.4017128E1,1.4095119E2,9.605769E2,7.944791E0,4.656003E0,5.976951E1,5.154198E0,5.1253155E1,6.300672E1,2.4647615E2,1.4292412E0,1.6692071E0,1.3565742E0,1.0567942E0,4.8877707E0,3.912936E1,2.5063559E1,1.1588763E2,1.3049506E1,9.475274E2,4.353296E0,3.591495E0],"tree_param":{"num_deleted":"0","num_feature":"5","num_nodes":"47","size_leaf_vector":"1"}},{"base_weights":[5.0467025E-3,1.02930866E-1,-3.788675E-2,2.9873779E-2,5.464139E-1,3.463522E-2,-4.628596E-2,4.2628527E-1,-3.243378E-2,8.9719254E-1,6.473119E-2,-4.9266997E-3,2.6319745E-1,-3.261944E-1,-4.213341E-2,3.009347E-1,6.288474E-1,8.1621725E-3,-9.7753204E-2,2.6121932E-1,9.958135E-2,3.8049266E-1,9.854448E-3,5.8034748E-2,-2.548595E-1,5.5406725E-1,-1.503157E-1,-6.030509E-1,1.0908615E-2,3.8296595E-1,-4.7195937E-2,1.3737817E-2,6.936707E-2,8.216672E-2,2.7292281E-2,8.118942E-2,-4.166827E-5,5.1386206E-4,-2.0617109E-2,-3.4227252E-3,4.97368E-2,-2.0181956E-2,8.048168E-2,-3.2968752E-2,1.2288614E-2,2.28011E-3,8.4889576E-2,-1.0353612E-1,-3.4361414E-3,8.5100554E-2,-1.4956259E-4,-6.491067E-2,5.3353097E-2,2.8861895E-2,-8.8676624E-2,-6.493317E-2,5.101487E-2,-9.523582E-3,1.0260411E-1,-5.624221E-2,-4.4502844E-3],"categories":[],"categories_nodes":[],"categories_segments":[],"categories_sizes":[],"default_left":[0,0,0,0,0,0,0,0,0,0,0,0,0,0,0,0,0,0,0,0,0,0,0,0,0,0,0,0,0,0,0,0,0,0,0,0,0,0,0,0,0,0,0,0,0,0,0,0,0,0,0,0,0,0,0,0,0,0,0,0,0],"id":28,"left_children":[1,3,5,7,9,11,13,15,17,19,21,23,25,27,29,31,33,35,37,39,-1,41,43,45,47,49,51,53,55,57,59,-1,-1,-1,-1,-1,-1,-1,-1,-1,-1,-1,-1,-1,-1,-1,-1,-1,-1,-1,-1,-1,-1,-1,-1,-1,-1,-1,-1,-1,-1],"loss_changes":[6.8655896E0,1.6121153E1,6.9337976E-1,1.0602199E1,1.1834942E1,1.0723673E0,1.1697855E0,1.2910519E0,9.856133E-1,2.289482E0,5.288682E-1,1.6191607E0,2.187655E0,1.3819476E0,2.179831E0,2.3411884E0,1.2422333E0,1.585962E0,1.5898631E0,4.9236274E-1,0E0,1.2803593E0,1.0849243E0,2.2726307E0,3.5270562E0,1.730869E0,3.0789683E0,2.307404E0,2.845443E0,3.766899E0,1.3535955E0,0E0,0E0,0E0,0E0,0E0,0E0,0E0,0E0,0E0,0E0,0E0,0E0,0E0,0E0,0E0,0E0,0E0,0E0,0E0,0E0,0E0,0E0,0E0,0E0,0E0,0E0,0E0,0E0,0E0,0E0],"parents":[2147483647,0,0,1,1,2,2,3,3,4,4,5,5,6,6,7,7,8,8,9,9,10,10,11,11,12,12,13,13,14,14,15,15,16,16,17,17,18,18,19,19,21,21,22,22,23,23,24,24,25,25,26,26,27,27,28,28,29,29,30,30],"right_children":[2,4,6,8,10,12,14,16,18,20,22,24,26,28,30,32,34,36,38,40,-1,42,44,46,48,50,52,54,56,58,60,-1,-1,-1,-1,-1,-1,-1,-1,-1,-1,-1,-1,-1,-1,-1,-1,-1,-1,-1,-1,-1,-1,-1,-1,-1,-1,-1,-1,-1,-1],"split_conditions":[4.044E3,1.995E3,1E0,1.81E2,3.977E3,5.691E3,1.1E2,2E0,2E0,2.029E3,1E0,5.345E3,4E0,4E0,1.23E2,1.65E2,4E0,1.89E2,1.539E3,2.31E2,9.958135E-2,2E0,1.76E2,5.322E3,5.421E3,2.12E2,2.32E2,2E0,4.623E3,4E0,1.26E2,1.3737817E-2,6.936707E-2,8.216672E-2,2.7292281E-2,8.118942E-2,-4.166827E-5,5.1386206E-4,-2.0617109E-2,-3.4227252E-3,4.97368E-2,-2.0181956E-2,8.048168E-2,-3.2968752E-2,1.2288614E-2,2.28011E-3,8.4889576E-2,-1.0353612E-1,-3.4361414E-3,8.5100554E-2,-1.4956259E-4,-6.491067E-2,5.3353097E-2,2.8861895E-2,-8.8676624E-2,-6.493317E-2,5.101487E-2,-9.523582E-3,1.0260411E-1,-5.624221E-2,-4.4502844E-3],"split_indices":[3,3,2,4,3,3,4,2,2,3,1,3,0,0,4,4,0,4,3,4,0,0,4,3,3,4,4,1,3,0,4,0,0,0,0,0,0,0,0,0,0,0,0,0,0,0,0,0,0,0,0,0,0,0,0,0,0,0,0,0,0],"split_type":[0,0,0,0,0,0,0,0,0,0,0,0,0,0,0,0,0,0,0,0,0,0,0,0,0,0,0,0,0,0,0,0,0,0,0,0,0,0,0,0,0,0,0,0,0,0,0,0,0,0,0,0,0,0,0,0,0,0,0,0,0],"sum_hessian":[1.6317616E3,4.9707675E2,1.1346848E3,4.2768887E2,6.938788E1,1.1745034E2,1.0172345E3,5.7299282E1,3.703896E2,3.965041E1,2.973747E1,1.0095453E2,1.6495811E1,1.3736758E1,1.00349774E3,3.693106E1,2.0368225E1,2.2896384E2,1.4142575E2,5.8130116E0,3.38374E1,3.5244062E0,2.6213064E1,8.125348E1,1.970105E1,9.484444E0,7.0113673E0,7.1091905E0,6.6275682E0,1.0931539E1,9.925662E2,2.7025835E1,9.905224E0,1.2362426E1,8.005799E0,1.4291726E0,2.2753465E2,7.305088E1,6.837488E1,2.962134E0,2.8508775E0,1.7066691E0,1.817737E0,6.068076E0,2.0144989E1,7.87729E1,2.4805808E0,3.5256565E0,1.6175392E1,5.8343177E0,3.650126E0,4.0836177E0,2.9277494E0,1.7118496E0,5.397341E0,2.7241995E0,3.903369E0,6.7580457E0,4.1734934E0,4.080451E0,9.884858E2],"tree_param":{"num_deleted":"0","num_feature":"5","num_nodes":"61","size_leaf_vector":"1"}},{"base_weights":[4.9669184E-3,9.8298706E-2,-3.27624E-2,3.1213896E-2,8.755423E-1,3.4542054E-2,-4.0552754E-2,3.7013438E-1,-3.0593822E-2,9.906586E-2,1.6811119E-1,5.798195E-2,1.965055E-2,-3.104669E-1,-3.65761E-2,8.747025E-2,3.1498572E-1,-1.5764529E-1,-7.070066E-3,-3.468606E-2,4.2417094E-1,-6.496855E-2,3.7795935E-2,-5.930176E-1,3.0033574E-2,3.533672E-1,-4.1116256E-2,1.0651899E-2,4.460121E-2,4.2245135E-2,-2.235458E-2,1.6198583E-2,-5.0815972E-3,7.09339E-2,7.4561536E-3,1.0290679E-2,-1.0087376E-2,-1.6068367E-2,-1.14300646E-1,-5.4171123E-2,4.686206E-2,-1.3457975E-2,9.1871865E-2,-5.7109963E-2,-3.8310685E-3],"categories":[],"categories_nodes":[],"categories_segments":[],"categories_sizes":[],"default_left":[0,0,0,0,0,0,0,0,0,0,0,0,0,0,0,0,0,0,0,0,0,0,0,0,0,0,0,0,0,0,0,0,0,0,0,0,0,0,0,0,0,0,0,0,0],"id":29,"left_children":[1,3,5,7,9,11,13,15,17,-1,19,-1,21,23,25,-1,27,29,31,-1,33,-1,35,37,39,41,43,-1,-1,-1,-1,-1,-1,-1,-1,-1,-1,-1,-1,-1,-1,-1,-1,-1,-1],"loss_changes":[5.730122E0,2.4397383E1,6.090442E-1,9.066094E0,2.8614216E0,9.69219E-1,1.1040107E0,1.5817785E0,1.0942712E0,0E0,9.9210924E-1,0E0,1.464871E0,1.4565014E0,1.8295238E0,0E0,1.6386919E0,2.281528E0,2.3030193E0,0E0,4.1865605E-1,0E0,1.0613875E0,1.7710125E0,2.1930575E0,3.407283E0,1.4862669E0,0E0,0E0,0E0,0E0,0E0,0E0,0E0,0E0,0E0,0E0,0E0,0E0,0E0,0E0,0E0,0E0,0E0,0E0],"parents":[2147483647,0,0,1,1,2,2,3,3,4,4,5,5,6,6,7,7,8,8,10,10,12,12,13,13,14,14,16,16,17,17,18,18,20,20,22,22,23,23,24,24,25,25,26,26],"right_children":[2,4,6,8,10,12,14,16,18,-1,20,-1,22,24,26,-1,28,30,32,-1,34,-1,36,38,40,42,44,-1,-1,-1,-1,-1,-1,-1,-1,-1,-1,-1,-1,-1,-1,-1,-1,-1,-1],"split_conditions":[4.006E3,2.029E3,1E0,2.15E2,3.977E3,1.1E2,1.1E2,1.3E2,2.37E2,9.906586E-2,1E0,5.798195E-2,1.23E2,4E0,1.23E2,8.747025E-2,1.385E3,1.067E3,2.5E2,-3.468606E-2,2.09E2,-6.496855E-2,4E0,5.216E3,4.623E3,5.095E3,1.26E2,1.0651899E-2,4.460121E-2,4.2245135E-2,-2.235458E-2,1.6198583E-2,-5.0815972E-3,7.09339E-2,7.4561536E-3,1.0290679E-2,-1.0087376E-2,-1.6068367E-2,-1.14300646E-1,-5.4171123E-2,4.686206E-2,-1.3457975E-2,9.1871865E-2,-5.7109963E-2,-3.8310685E-3],"split_indices":[3,3,2,4,3,4,4,4,4,0,0,0,4,0,4,0,3,3,4,0,4,0,0,3,3,3,4,0,0,0,0,0,0,0,0,0,0,0,0,0,0,0,0,0,0],"split_type":[0,0,0,0,0,0,0,0,0,0,0,0,0,0,0,0,0,0,0,0,0,0,0,0,0,0,0,0,0,0,0,0,0,0,0,0,0,0,0,0,0,0,0,0,0],"sum_hessian":[1.6253392E3,4.674337E2,1.1579055E3,4.3125195E2,3.6181705E1,1.1976511E2,1.0381404E3,6.574625E1,3.655057E2,3.0773708E1,5.4079967E0,2.1753337E0,1.17589775E2,1.3953861E1,1.0241865E3,5.013718E0,6.0732525E1,5.621075E1,3.0929498E2,1.6782317E0,3.7297652E0,2.1850357E0,1.1540474E2,7.2205615E0,6.7332993E0,1.0903225E1,1.0132833E3,2.4139242E1,3.6593285E1,5.182325E0,5.1028427E1,6.302648E1,2.462685E2,1.4875E0,2.2422652E0,7.870674E1,3.6697998E1,4.7661533E0,2.4544084E0,2.820869E0,3.9124305E0,6.2612133E0,4.642012E0,4.2691355E0,1.0090142E3],"tree_param":{"num_deleted":"0","num_feature":"5","num_nodes":"45","size_leaf_vector":"1"}},{"base_weights":[4.7128336E-3,8.1629455E-2,-3.4347158E-2,3.1481797E-1,2.766639E-2,-3.755054E-1,-2.8806528E-2,8.4666836E-1,2.6180995E-1,-2.4622655E-2,2.9051664E-1,3.888778E-2,-7.3880726E-1,-3.6027823E-2,1.0624906E-1,4.172847E-1,1.01189055E-1,1.3251446E-1,4.169715E-1,-9.981584E-2,1.0938482E-2,9.770323E-2,-2.6999054E-2,-3.233492E-1,8.8723086E-2,-1.1252685E-1,-2.829457E-1,-3.1296898E-2,-3.2510805E-1,2.0557567E-2,5.845133E-1,